{"learner":{"attributes":{"best_iteration":"442","best_score":"9.081033480857862"},"feature_names":["demand_mw","demand_forecast_mw","price_per_mwh","temp_c","humidity","wind_speed","precipitation","price_lag_1","price_lag_2","price_lag_3","price_lag_6","price_lag_24","price_roll_mean_3","price_roll_mean_6","price_roll_mean_24","price_roll_std_6","price_roll_std_24"],"feature_types":["float","int","float","float","int","float","float","float","float","float","float","float","float","float","float","float","float"],"gradient_booster":{"model":{"cats":{"enc":[],"feature_segments":[],"sorted_idx":[]},"gbtree_model_param":{"num_parallel_tree":"1","num_trees":"518"},"iteration_indptr":[0,1,2,3,4,5,6,7,8,9,10,11,12,13,14,15,16,17,18,19,20,21,22,23,24,25,26,27,28,29,30,31,32,33,34,35,36,37,38,39,40,41,42,43,44,45,46,47,48,49,50,51,52,53,54,55,56,57,58,59,60,61,62,63,64,65,66,67,68,69,70,71,72,73,74,75,76,77,78,79,80,81,82,83,84,85,86,87,88,89,90,91,92,93,94,95,96,97,98,99,100,101,102,103,104,105,106,107,108,109,110,111,112,113,114,115,116,117,118,119,120,121,122,123,124,125,126,127,128,129,130,131,132,133,134,135,136,137,138,139,140,141,142,143,144,145,146,147,148,149,150,151,152,153,154,155,156,157,158,159,160,161,162,163,164,165,166,167,168,169,170,171,172,173,174,175,176,177,178,179,180,181,182,183,184,185,186,187,188,189,190,191,192,193,194,195,196,197,198,199,200,201,202,203,204,205,206,207,208,209,210,211,212,213,214,215,216,217,218,219,220,221,222,223,224,225,226,227,228,229,230,231,232,233,234,235,236,237,238,239,240,241,242,243,244,245,246,247,248,249,250,251,252,253,254,255,256,257,258,259,260,261,262,263,264,265,266,267,268,269,270,271,272,273,274,275,276,277,278,279,280,281,282,283,284,285,286,287,288,289,290,291,292,293,294,295,296,297,298,299,300,301,302,303,304,305,306,307,308,309,310,311,312,313,314,315,316,317,318,319,320,321,322,323,324,325,326,327,328,329,330,331,332,333,334,335,336,337,338,339,340,341,342,343,344,345,346,347,348,349,350,351,352,353,354,355,356,357,358,359,360,361,362,363,364,365,366,367,368,369,370,371,372,373,374,375,376,377,378,379,380,381,382,383,384,385,386,387,388,389,390,391,392,393,394,395,396,397,398,399,400,401,402,403,404,405,406,407,408,409,410,411,412,413,414,415,416,417,418,419,420,421,422,423,424,425,426,427,428,429,430,431,432,433,434,435,436,437,438,439,440,441,442,443,444,445,446,447,448,449,450,451,452,453,454,455,456,457,458,459,460,461,462,463,464,465,466,467,468,469,470,471,472,473,474,475,476,477,478,479,480,481,482,483,484,485,486,487,488,489,490,491,492,493,494,495,496,497,498,499,500,501,502,503,504,505,506,507,508,509,510,511,512,513,514,515,516,517,518],"tree_info":[0,0,0,0,0,0,0,0,0,0,0,0,0,0,0,0,0,0,0,0,0,0,0,0,0,0,0,0,0,0,0,0,0,0,0,0,0,0,0,0,0,0,0,0,0,0,0,0,0,0,0,0,0,0,0,0,0,0,0,0,0,0,0,0,0,0,0,0,0,0,0,0,0,0,0,0,0,0,0,0,0,0,0,0,0,0,0,0,0,0,0,0,0,0,0,0,0,0,0,0,0,0,0,0,0,0,0,0,0,0,0,0,0,0,0,0,0,0,0,0,0,0,0,0,0,0,0,0,0,0,0,0,0,0,0,0,0,0,0,0,0,0,0,0,0,0,0,0,0,0,0,0,0,0,0,0,0,0,0,0,0,0,0,0,0,0,0,0,0,0,0,0,0,0,0,0,0,0,0,0,0,0,0,0,0,0,0,0,0,0,0,0,0,0,0,0,0,0,0,0,0,0,0,0,0,0,0,0,0,0,0,0,0,0,0,0,0,0,0,0,0,0,0,0,0,0,0,0,0,0,0,0,0,0,0,0,0,0,0,0,0,0,0,0,0,0,0,0,0,0,0,0,0,0,0,0,0,0,0,0,0,0,0,0,0,0,0,0,0,0,0,0,0,0,0,0,0,0,0,0,0,0,0,0,0,0,0,0,0,0,0,0,0,0,0,0,0,0,0,0,0,0,0,0,0,0,0,0,0,0,0,0,0,0,0,0,0,0,0,0,0,0,0,0,0,0,0,0,0,0,0,0,0,0,0,0,0,0,0,0,0,0,0,0,0,0,0,0,0,0,0,0,0,0,0,0,0,0,0,0,0,0,0,0,0,0,0,0,0,0,0,0,0,0,0,0,0,0,0,0,0,0,0,0,0,0,0,0,0,0,0,0,0,0,0,0,0,0,0,0,0,0,0,0,0,0,0,0,0,0,0,0,0,0,0,0,0,0,0,0,0,0,0,0,0,0,0,0,0,0,0,0,0,0,0,0,0,0,0,0,0,0,0,0,0,0,0,0,0,0,0,0,0,0,0,0,0,0,0,0,0,0,0,0,0,0,0,0,0,0,0,0,0,0,0,0,0,0,0,0,0,0,0,0,0,0,0,0,0,0,0,0,0,0,0,0,0,0,0,0,0,0,0,0,0,0,0,0,0,0,0,0,0,0,0,0,0,0],"trees":[{"base_weights":[-2.522115E-1,-1.0126032E1,6.71876E1,-1.6448048E1,5.0372815E0,5.715919E1,1.447009E2,-2.0823977E1,-1.1763979E1,1.0585379E-1,1.794233E1,4.4438786E1,7.7695045E1,1.23947754E2,5.9634995E0,-7.0735997E-1,-5.645707E-1,-4.2703453E-1,-2.7324888E-1,-8.810194E-2,1.2475838E-1,4.0537152E-1,7.067597E-1,1.053413E0,1.5565487E0,2.0750382E0,2.6320527E0,3.358392E0,4.382095E0],"categories":[],"categories_nodes":[],"categories_segments":[],"categories_sizes":[],"default_left":[0,0,0,0,0,0,0,0,0,0,0,0,0,0,0,0,0,0,0,0,0,0,0,0,0,0,0,0,0],"id":0,"left_children":[1,3,5,7,9,11,13,15,17,19,21,23,25,27,-1,-1,-1,-1,-1,-1,-1,-1,-1,-1,-1,-1,-1,-1,-1],"loss_changes":[6.5383745E6,8.2114694E5,9.665075E5,1.23660375E5,1.6043534E5,2.87029E5,1.3586175E5,1.681025E4,1.904125E4,2.251604E4,1.7023031E4,4.601925E4,3.023125E4,1.1790375E4,0E0,0E0,0E0,0E0,0E0,0E0,0E0,0E0,0E0,0E0,0E0,0E0,0E0,0E0,0E0],"parents":[2147483647,0,0,1,1,2,2,3,3,4,4,5,5,6,6,7,7,8,8,9,9,10,10,11,11,12,12,13,13],"right_children":[2,4,6,8,10,12,14,16,18,20,22,24,26,28,-1,-1,-1,-1,-1,-1,-1,-1,-1,-1,-1,-1,-1,-1,-1],"split_conditions":[7.3112E1,3.8229332E1,1.5083934E2,2.7589333E1,5.4776E1,1.07098E2,2.1639867E2,2.2601334E1,3.2192E1,4.4788E1,6.3418E1,8.587867E1,1.23304E2,1.7985533E2,5.9634995E0,-7.0735997E-1,-5.645707E-1,-4.2703453E-1,-2.7324888E-1,-8.810194E-2,1.2475838E-1,4.0537152E-1,7.067597E-1,1.053413E0,1.5565487E0,2.0750382E0,2.6320527E0,3.358392E0,4.382095E0],"split_indices":[2,2,2,2,2,2,2,2,2,2,2,2,2,2,0,0,0,0,0,0,0,0,0,0,0,0,0,0,0],"split_type":[0,0,0,0,0,0,0,0,0,0,0,0,0,0,0,0,0,0,0,0,0,0,0,0,0,0,0,0,0],"sum_hessian":[9.817E3,8.564E3,1.253E3,6.044E3,2.52E3,1.111E3,1.42E2,3.123E3,2.921E3,1.824E3,6.96E2,6.88E2,4.23E2,1.05E2,3.7E1,1.311E3,1.812E3,1.511E3,1.41E3,1.042E3,7.82E2,3.91E2,3.05E2,3.08E2,3.8E2,2.33E2,1.9E2,7.2E1,3.3E1],"tree_param":{"num_deleted":"0","num_feature":"17","num_nodes":"29","size_leaf_vector":"1"}},{"base_weights":[-5.3351775E-2,-9.334571E0,6.900593E1,-1.5027258E1,8.06791E0,5.9528725E1,1.5652197E2,-1.975308E1,-9.879593E0,2.6478896E0,2.0783562E1,4.5847218E1,8.010444E1,1.3157576E2,5.981492E0,-6.7446727E-1,-5.280115E-1,-3.7112823E-1,-1.948924E-1,-1.2038521E-2,1.972639E-1,4.869501E-1,7.8598785E-1,1.176911E0,1.6565603E0,2.1477199E0,2.7957983E0,3.439108E0,4.351562E0],"categories":[],"categories_nodes":[],"categories_segments":[],"categories_sizes":[],"default_left":[0,0,0,0,0,0,0,0,0,0,0,0,0,0,0,0,0,0,0,0,0,0,0,0,0,0,0,0,0],"id":1,"left_children":[1,3,5,7,9,11,13,15,17,19,21,23,25,27,-1,-1,-1,-1,-1,-1,-1,-1,-1,-1,-1,-1,-1,-1,-1],"loss_changes":[6.346092E6,8.6477706E5,9.63577E5,1.5980325E5,1.4825884E5,2.94725E5,9.56575E4,1.9744E4,2.6469938E4,1.808618E4,1.5426781E4,3.7457875E4,4.035375E4,4.92125E2,0E0,0E0,0E0,0E0,0E0,0E0,0E0,0E0,0E0,0E0,0E0,0E0,0E0,0E0,0E0],"parents":[2147483647,0,0,1,1,2,2,3,3,4,4,5,5,6,6,7,7,8,8,9,9,10,10,11,11,12,12,13,13],"right_children":[2,4,6,8,10,12,14,16,18,20,22,24,26,28,-1,-1,-1,-1,-1,-1,-1,-1,-1,-1,-1,-1,-1,-1,-1],"split_conditions":[7.582667E1,4.0768665E1,1.6165134E2,2.8488E1,5.7370667E1,1.0929667E2,2.1639867E2,2.3159334E1,3.458267E1,4.7532665E1,6.649467E1,9.3872E1,1.30826E2,1.7985533E2,5.981492E0,-6.7446727E-1,-5.280115E-1,-3.7112823E-1,-1.948924E-1,-1.2038521E-2,1.972639E-1,4.869501E-1,7.8598785E-1,1.176911E0,1.6565603E0,2.1477199E0,2.7957983E0,3.439108E0,4.351562E0],"split_indices":[2,2,2,2,2,2,2,2,2,2,2,2,2,2,0,0,0,0,0,0,0,0,0,0,0,0,0,0,0],"split_type":[0,0,0,0,0,0,0,0,0,0,0,0,0,0,0,0,0,0,0,0,0,0,0,0,0,0,0,0,0],"sum_hessian":[9.899E3,8.727E3,1.172E3,6.576E3,2.151E3,1.059E3,1.13E2,3.427E3,3.149E3,1.509E3,6.42E2,6.38E2,4.21E2,7.4E1,3.9E1,1.507E3,1.92E3,1.812E3,1.337E3,8.5E2,6.59E2,3.51E2,2.91E2,3.77E2,2.61E2,2.59E2,1.62E2,3.7E1,3.7E1],"tree_param":{"num_deleted":"0","num_feature":"17","num_nodes":"29","size_leaf_vector":"1"}},{"base_weights":[1.2776163E-2,-9.376275E0,6.289296E1,-1.4827942E1,3.7235854E0,5.4175793E1,1.4579865E2,-1.8341244E1,-1.0348488E1,-5.760653E-1,1.7365057E1,4.2681145E1,7.427191E1,3.2491558E0,5.3249693E0,-6.134155E-1,-4.7482708E-1,-3.6536762E-1,-1.9940504E-1,-1.15028866E-1,1.18974395E-1,2.5537226E-1,6.995085E-1,1.0375046E0,1.4987128E0,2.0403993E0,2.6452653E0],"categories":[],"categories_nodes":[],"categories_segments":[],"categories_sizes":[],"default_left":[0,0,0,0,0,0,0,0,0,0,0,0,0,0,0,0,0,0,0,0,0,0,0,0,0,0,0],"id":2,"left_children":[1,3,5,7,9,11,13,15,17,19,21,23,25,-1,-1,-1,-1,-1,-1,-1,-1,-1,-1,-1,-1,-1,-1],"loss_changes":[5.8076195E6,6.1130525E5,9.157155E5,9.492875E4,1.4758236E5,2.643255E5,1.24591E5,1.7600625E4,1.7935438E4,2.8339506E4,3.1573578E4,4.181275E4,3.055025E4,0E0,0E0,0E0,0E0,0E0,0E0,0E0,0E0,0E0,0E0,0E0,0E0,0E0,0E0],"parents":[2147483647,0,0,1,1,2,2,3,3,4,4,5,5,6,6,7,7,8,8,9,9,10,10,11,11,12,12],"right_children":[2,4,6,8,10,12,14,16,18,20,22,24,26,-1,-1,-1,-1,-1,-1,-1,-1,-1,-1,-1,-1,-1,-1],"split_conditions":[7.3112E1,3.8218E1,1.6165134E2,2.8485332E1,5.6074E1,1.0929667E2,1.6165134E2,2.4692E1,3.5768E1,4.4542667E1,5.5873917E1,8.7616E1,1.2983965E2,3.2491558E0,5.3249693E0,-6.134155E-1,-4.7482708E-1,-3.6536762E-1,-1.9940504E-1,-1.15028866E-1,1.18974395E-1,2.5537226E-1,6.995085E-1,1.0375046E0,1.4987128E0,2.0403993E0,2.6452653E0],"split_indices":[7,7,7,11,7,7,10,7,11,11,14,7,14,0,0,0,0,0,0,0,0,0,0,0,0,0,0],"split_type":[0,0,0,0,0,0,0,0,0,0,0,0,0,0,0,0,0,0,0,0,0,0,0,0,0,0,0],"sum_hessian":[9.835E3,8.558E3,1.277E3,6.043E3,2.515E3,1.157E3,1.2E2,3.385E3,2.658E3,1.913E3,6.02E2,7.38E2,4.19E2,5.7E1,6.3E1,1.838E3,1.547E3,1.777E3,8.81E2,1.114E3,7.99E2,2.43E2,3.59E2,3.52E2,3.86E2,2.93E2,1.26E2],"tree_param":{"num_deleted":"0","num_feature":"17","num_nodes":"27","size_leaf_vector":"1"}},{"base_weights":[1.6447768E-1,-9.176409E0,6.276723E1,-1.5078929E1,4.560844E0,5.238175E1,1.3324641E2,-1.903724E1,-1.076466E1,1.6668443E-1,1.6808836E1,3.8007004E1,6.761463E1,1.1459458E2,5.540912E0,-6.525865E-1,-5.1832837E-1,-3.872188E-1,-2.4897705E-1,-7.8327775E-2,1.2760569E-1,4.085918E-1,6.787609E-1,9.6421427E-1,1.3387918E0,1.7361922E0,2.3100438E0,3.0749235E0,4.0645304E0],"categories":[],"categories_nodes":[],"categories_segments":[],"categories_sizes":[],"default_left":[0,0,0,0,0,0,0,0,0,0,0,0,0,0,0,0,0,0,0,0,0,0,0,0,0,0,0,0,0],"id":3,"left_children":[1,3,5,7,9,11,13,15,17,19,21,23,25,27,-1,-1,-1,-1,-1,-1,-1,-1,-1,-1,-1,-1,-1,-1,-1],"loss_changes":[5.7739625E6,6.96746E5,9.313935E5,1.02429125E5,1.3901331E5,2.42456E5,1.362175E5,1.459525E4,1.5095906E4,2.1601938E4,1.2342641E4,2.1011E4,4.51055E4,1.7196125E4,0E0,0E0,0E0,0E0,0E0,0E0,0E0,0E0,0E0,0E0,0E0,0E0,0E0,0E0,0E0],"parents":[2147483647,0,0,1,1,2,2,3,3,4,4,5,5,6,6,7,7,8,8,9,9,10,10,11,11,12,12,13,13],"right_children":[2,4,6,8,10,12,14,16,18,20,22,24,26,28,-1,-1,-1,-1,-1,-1,-1,-1,-1,-1,-1,-1,-1,-1,-1],"split_conditions":[7.3112E1,3.8229332E1,1.5083934E2,2.7589333E1,5.5426666E1,1.0004733E2,2.1639867E2,2.2410667E1,3.2346E1,4.512467E1,6.554867E1,8.587867E1,1.1690733E2,1.7985533E2,5.540912E0,-6.525865E-1,-5.1832837E-1,-3.872188E-1,-2.4897705E-1,-7.8327775E-2,1.2760569E-1,4.085918E-1,6.787609E-1,9.6421427E-1,1.3387918E0,1.7361922E0,2.3100438E0,3.0749235E0,4.0645304E0],"split_indices":[2,2,2,2,2,2,2,2,2,2,2,2,2,2,0,0,0,0,0,0,0,0,0,0,0,0,0,0,0],"split_type":[0,0,0,0,0,0,0,0,0,0,0,0,0,0,0,0,0,0,0,0,0,0,0,0,0,0,0,0,0],"sum_hessian":[9.872E3,8.591E3,1.281E3,6.009E3,2.582E3,1.118E3,1.63E2,3.132E3,2.877E3,1.901E3,6.81E2,5.77E2,5.41E2,1.22E2,4.1E1,1.227E3,1.905E3,1.537E3,1.34E3,1.132E3,7.69E2,4.42E2,2.39E2,3.09E2,2.68E2,2.69E2,2.72E2,8.1E1,4.1E1],"tree_param":{"num_deleted":"0","num_feature":"17","num_nodes":"29","size_leaf_vector":"1"}},{"base_weights":[-1.7132439E-2,-9.340119E0,5.6295055E1,-1.501896E1,8.356043E-1,4.4577793E1,1.05859764E2,-1.8502037E1,-1.2077851E1,-2.0824049E0,1.365251E1,3.4208694E1,5.9065872E1,8.7165955E1,1.5408907E2,-6.24637E-1,-5.1619047E-1,-4.1524148E-1,-2.8678092E-1,-1.6294229E-1,4.6828285E-2,2.5480655E-1,5.5908716E-1,8.789748E-1,1.2416706E0,1.5431141E0,1.9000906E0,2.174967E0,2.7911692E0,3.276444E0,5.1033325E0],"categories":[],"categories_nodes":[],"categories_segments":[],"categories_sizes":[],"default_left":[0,0,0,0,0,0,0,0,0,0,0,0,0,0,0,0,0,0,0,0,0,0,0,0,0,0,0,0,0,0,0],"id":4,"left_children":[1,3,5,7,9,11,13,15,17,19,21,23,25,27,29,-1,-1,-1,-1,-1,-1,-1,-1,-1,-1,-1,-1,-1,-1,-1,-1],"loss_changes":[5.1560045E6,4.8692006E5,8.054445E5,5.5176625E4,1.1293857E5,1.677375E5,2.2639125E5,7.076E3,1.2903281E4,3.002439E4,1.4239789E4,2.2088938E4,1.2054E4,9.965875E3,3.39065E4,0E0,0E0,0E0,0E0,0E0,0E0,0E0,0E0,0E0,0E0,0E0,0E0,0E0,0E0,0E0,0E0],"parents":[2147483647,0,0,1,1,2,2,3,3,4,4,5,5,6,6,7,7,8,8,9,9,10,10,11,11,12,12,13,13,14,14],"right_children":[2,4,6,8,10,12,14,16,18,20,22,24,26,28,30,-1,-1,-1,-1,-1,-1,-1,-1,-1,-1,-1,-1,-1,-1,-1,-1],"split_conditions":[6.889533E1,3.5428E1,1.3027045E2,2.6059778E1,5.3842888E1,9.810733E1,1.7985533E2,2.1589111E1,3.1011333E1,4.1192E1,5.5873917E1,8.406067E1,9.3872E1,1.1149467E2,1.6165134E2,-6.24637E-1,-5.1619047E-1,-4.1524148E-1,-2.8678092E-1,-1.6294229E-1,4.6828285E-2,2.5480655E-1,5.5908716E-1,8.789748E-1,1.2416706E0,1.5431141E0,1.9000906E0,2.174967E0,2.7911692E0,3.276444E0,5.1033325E0],"split_indices":[12,12,12,12,12,12,7,12,11,11,14,12,10,10,10,0,0,0,0,0,0,0,0,0,0,0,0,0,0,0,0],"split_type":[0,0,0,0,0,0,0,0,0,0,0,0,0,0,0,0,0,0,0,0,0,0,0,0,0,0,0,0,0,0,0],"sum_hessian":[9.819E3,8.425E3,1.394E3,5.407E3,3.018E3,1.129E3,2.65E2,2.473E3,2.934E3,2.459E3,5.59E2,6.6E2,4.69E2,1.93E2,7.2E1,8.81E2,1.592E3,1.723E3,1.211E3,1.281E3,1.178E3,2.76E2,2.83E2,3.95E2,2.65E2,1.73E2,2.96E2,5.9E1,1.34E2,2.1E1,5.1E1],"tree_param":{"num_deleted":"0","num_feature":"17","num_nodes":"31","size_leaf_vector":"1"}},{"base_weights":[-5.5153932E-2,-8.778191E0,5.885442E1,-1.4173111E1,4.077855E0,4.9359535E1,1.2676726E2,-1.794743E1,-1.0192468E1,7.932804E-2,1.5207169E1,3.8299862E1,6.79657E1,1.09068535E2,5.1662936E0,-6.213047E-1,-4.9104112E-1,-3.7039864E-1,-2.3925924E-1,-8.047282E-2,9.8166585E-2,3.449032E-1,5.997813E-1,9.2702234E-1,1.3695971E0,1.879099E0,2.414533E0,2.942583E0,3.8622353E0],"categories":[],"categories_nodes":[],"categories_segments":[],"categories_sizes":[],"default_left":[0,0,0,0,0,0,0,0,0,0,0,0,0,0,0,0,0,0,0,0,0,0,0,0,0,0,0,0,0],"id":5,"left_children":[1,3,5,7,9,11,13,15,17,19,21,23,25,27,-1,-1,-1,-1,-1,-1,-1,-1,-1,-1,-1,-1,-1,-1,-1],"loss_changes":[5.0878335E6,5.981956E5,8.171835E5,9.1089125E4,1.13475984E5,2.2828E5,1.0668425E5,1.326175E4,1.4034031E4,1.6560137E4,1.1737875E4,3.7001688E4,2.2778125E4,1.2218375E4,0E0,0E0,0E0,0E0,0E0,0E0,0E0,0E0,0E0,0E0,0E0,0E0,0E0,0E0,0E0],"parents":[2147483647,0,0,1,1,2,2,3,3,4,4,5,5,6,6,7,7,8,8,9,9,10,10,11,11,12,12,13,13],"right_children":[2,4,6,8,10,12,14,16,18,20,22,24,26,28,-1,-1,-1,-1,-1,-1,-1,-1,-1,-1,-1,-1,-1,-1,-1],"split_conditions":[7.3112E1,3.8229332E1,1.5083934E2,2.7589333E1,5.4776E1,1.07098E2,2.1639867E2,2.2114E1,3.2073334E1,4.4275333E1,6.3418E1,8.7616E1,1.30826E2,1.7985533E2,5.1662936E0,-6.213047E-1,-4.9104112E-1,-3.7039864E-1,-2.3925924E-1,-8.047282E-2,9.8166585E-2,3.449032E-1,5.997813E-1,9.2702234E-1,1.3695971E0,1.879099E0,2.414533E0,2.942583E0,3.8622353E0],"split_indices":[2,2,2,2,2,2,2,2,2,2,2,2,2,2,0,0,0,0,0,0,0,0,0,0,0,0,0,0,0],"split_type":[0,0,0,0,0,0,0,0,0,0,0,0,0,0,0,0,0,0,0,0,0,0,0,0,0,0,0,0,0],"sum_hessian":[9.899E3,8.623E3,1.276E3,6.074E3,2.549E3,1.121E3,1.55E2,3.116E3,2.958E3,1.876E3,6.73E2,7.05E2,4.16E2,1.14E2,4.1E1,1.129E3,1.987E3,1.498E3,1.46E3,1.006E3,8.7E2,3.81E2,2.92E2,3.54E2,3.51E2,2.96E2,1.2E2,7.7E1,3.7E1],"tree_param":{"num_deleted":"0","num_feature":"17","num_nodes":"29","size_leaf_vector":"1"}},{"base_weights":[5.5268835E-2,-8.376564E0,5.6713432E1,-1.3808537E1,4.0679646E0,4.8062878E1,1.2367731E2,-1.7444216E1,-9.854753E0,-9.9512234E-2,1.5270046E1,3.7270752E1,6.532396E1,1.06602715E2,5.0685124E0,-6.078701E-1,-4.799355E-1,-3.5674962E-1,-2.3034517E-1,-7.62875E-2,1.0153492E-1,3.4639204E-1,6.001419E-1,9.2096764E-1,1.3542882E0,1.7381098E0,2.2139611E0,2.8703942E0,3.7737226E0],"categories":[],"categories_nodes":[],"categories_segments":[],"categories_sizes":[],"default_left":[0,0,0,0,0,0,0,0,0,0,0,0,0,0,0,0,0,0,0,0,0,0,0,0,0,0,0,0,0],"id":6,"left_children":[1,3,5,7,9,11,13,15,17,19,21,23,25,27,-1,-1,-1,-1,-1,-1,-1,-1,-1,-1,-1,-1,-1,-1,-1],"loss_changes":[4.694671E6,5.7829225E5,7.3147175E5,8.5429375E4,1.21381016E5,2.0787975E5,9.40775E4,1.2315625E4,1.2566281E4,1.6148961E4,1.2198359E4,3.4673312E4,2.2831375E4,1.06E4,0E0,0E0,0E0,0E0,0E0,0E0,0E0,0E0,0E0,0E0,0E0,0E0,0E0,0E0,0E0],"parents":[2147483647,0,0,1,1,2,2,3,3,4,4,5,5,6,6,7,7,8,8,9,9,10,10,11,11,12,12,13,13],"right_children":[2,4,6,8,10,12,14,16,18,20,22,24,26,28,-1,-1,-1,-1,-1,-1,-1,-1,-1,-1,-1,-1,-1,-1,-1],"split_conditions":[7.3112E1,3.8056667E1,1.5083934E2,2.7589333E1,5.4776E1,1.07098E2,2.1639867E2,2.1898666E1,3.2192E1,4.4788E1,6.3418E1,8.9918E1,1.23304E2,1.7985533E2,5.0685124E0,-6.078701E-1,-4.799355E-1,-3.5674962E-1,-2.3034517E-1,-7.62875E-2,1.0153492E-1,3.4639204E-1,6.001419E-1,9.2096764E-1,1.3542882E0,1.7381098E0,2.2139611E0,2.8703942E0,3.7737226E0],"split_indices":[2,2,2,2,2,2,2,2,2,2,2,2,2,2,0,0,0,0,0,0,0,0,0,0,0,0,0,0,0],"split_type":[0,0,0,0,0,0,0,0,0,0,0,0,0,0,0,0,0,0,0,0,0,0,0,0,0,0,0,0,0],"sum_hessian":[9.825E3,8.553E3,1.272E3,5.954E3,2.599E3,1.128E3,1.44E2,3.1E3,2.854E3,1.895E3,7.04E2,6.96E2,4.32E2,1.07E2,3.7E1,1.047E3,2.053E3,1.472E3,1.382E3,1.114E3,7.81E2,3.96E2,3.08E2,3.82E2,3.14E2,2.35E2,1.97E2,7.2E1,3.5E1],"tree_param":{"num_deleted":"0","num_feature":"17","num_nodes":"29","size_leaf_vector":"1"}},{"base_weights":[3.3027586E-2,-7.982152E0,5.7093445E1,-1.3308985E1,4.802452E0,4.8780624E1,1.3070122E2,-1.7057673E1,-9.628758E0,1.4824122E-1,1.5567389E1,3.903923E1,6.763474E1,3.3466194E0,4.9118905E0,-5.791103E-1,-4.6313724E-1,-3.518466E-1,-2.2121364E-1,-7.228175E-2,1.0401121E-1,3.554708E-1,6.32295E-1,1.0006324E0,1.438647E0,1.862702E0,2.3756578E0],"categories":[],"categories_nodes":[],"categories_segments":[],"categories_sizes":[],"default_left":[0,0,0,0,0,0,0,0,0,0,0,0,0,0,0,0,0,0,0,0,0,0,0,0,0,0,0],"id":7,"left_children":[1,3,5,7,9,11,13,15,17,19,21,23,25,-1,-1,-1,-1,-1,-1,-1,-1,-1,-1,-1,-1,-1,-1],"loss_changes":[4.522727E6,5.9057156E5,7.38904E5,8.428125E4,1.27808625E5,1.9865675E5,5.9521E4,1.072875E4,1.4547E4,1.5134449E4,1.5523594E4,3.51465E4,1.8914375E4,0E0,0E0,0E0,0E0,0E0,0E0,0E0,0E0,0E0,0E0,0E0,0E0,0E0,0E0],"parents":[2147483647,0,0,1,1,2,2,3,3,4,4,5,5,6,6,7,7,8,8,9,9,10,10,11,11,12,12],"right_children":[2,4,6,8,10,12,14,16,18,20,22,24,26,-1,-1,-1,-1,-1,-1,-1,-1,-1,-1,-1,-1,-1,-1],"split_conditions":[7.582667E1,3.8464E1,1.6165134E2,2.7220667E1,5.4776E1,1.1149467E2,2.1639867E2,2.2410667E1,3.2073334E1,4.4788E1,6.554867E1,9.607533E1,1.3636867E2,3.3466194E0,4.9118905E0,-5.791103E-1,-4.6313724E-1,-3.518466E-1,-2.2121364E-1,-7.228175E-2,1.0401121E-1,3.554708E-1,6.32295E-1,1.0006324E0,1.438647E0,1.862702E0,2.3756578E0],"split_indices":[2,2,2,2,2,2,2,2,2,2,2,2,2,0,0,0,0,0,0,0,0,0,0,0,0,0,0],"split_type":[0,0,0,0,0,0,0,0,0,0,0,0,0,0,0,0,0,0,0,0,0,0,0,0,0,0,0],"sum_hessian":[9.887E3,8.67E3,1.217E3,6.12E3,2.55E3,1.095E3,1.22E2,3.03E3,3.09E3,1.781E3,7.69E2,7.24E2,3.71E2,8E1,4.2E1,1.265E3,1.765E3,1.598E3,1.492E3,1.006E3,7.75E2,4.61E2,3.08E2,4.45E2,2.79E2,2.55E2,1.16E2],"tree_param":{"num_deleted":"0","num_feature":"17","num_nodes":"27","size_leaf_vector":"1"}},{"base_weights":[-6.8108104E-2,-7.936393E0,5.361556E1,-1.2789474E1,4.098691E0,4.6595078E1,1.2757941E2,-1.6335556E1,-9.00181E0,-2.5697255E-1,1.3073826E1,3.6595604E1,6.599049E1,3.2174792E0,4.7990274E0,-5.5110383E-1,-4.343839E-1,-3.261071E-1,-2.0004886E-1,-7.3069595E-2,7.256369E-2,2.7699354E-1,5.2122504E-1,8.606882E-1,1.2958254E0,1.7762625E0,2.2666838E0],"categories":[],"categories_nodes":[],"categories_segments":[],"categories_sizes":[],"default_left":[0,0,0,0,0,0,0,0,0,0,0,0,0,0,0,0,0,0,0,0,0,0,0,0,0,0,0],"id":8,"left_children":[1,3,5,7,9,11,13,15,17,19,21,23,25,-1,-1,-1,-1,-1,-1,-1,-1,-1,-1,-1,-1,-1,-1],"loss_changes":[4.1766782E6,5.0375638E5,6.50402E5,8.240231E4,9.6914086E4,2.21784E5,5.461525E4,1.17163125E4,1.2894156E4,9.741376E3,1.3217828E4,3.86695E4,2.0956125E4,0E0,0E0,0E0,0E0,0E0,0E0,0E0,0E0,0E0,0E0,0E0,0E0,0E0,0E0],"parents":[2147483647,0,0,1,1,2,2,3,3,4,4,5,5,6,6,7,7,8,8,9,9,10,10,11,11,12,12],"right_children":[2,4,6,8,10,12,14,16,18,20,22,24,26,-1,-1,-1,-1,-1,-1,-1,-1,-1,-1,-1,-1,-1,-1],"split_conditions":[7.3112E1,3.8658E1,1.6165134E2,2.7675333E1,5.2427334E1,1.1149467E2,2.1639867E2,2.3159334E1,3.2888668E1,4.4275333E1,6.1228E1,8.7616E1,1.30826E2,3.2174792E0,4.7990274E0,-5.5110383E-1,-4.343839E-1,-3.261071E-1,-2.0004886E-1,-7.3069595E-2,7.256369E-2,2.7699354E-1,5.2122504E-1,8.606882E-1,1.2958254E0,1.7762625E0,2.2666838E0],"split_indices":[2,2,2,2,2,2,2,2,2,2,2,2,2,0,0,0,0,0,0,0,0,0,0,0,0,0,0],"split_type":[0,0,0,0,0,0,0,0,0,0,0,0,0,0,0,0,0,0,0,0,0,0,0,0,0,0,0],"sum_hessian":[9.886E3,8.623E3,1.263E3,6.145E3,2.478E3,1.155E3,1.08E2,3.172E3,2.973E3,1.669E3,8.09E2,7.64E2,3.91E2,6.9E1,3.9E1,1.509E3,1.663E3,1.649E3,1.324E3,9.2E2,7.49E2,4.29E2,3.8E2,3.5E2,4.14E2,2.33E2,1.58E2],"tree_param":{"num_deleted":"0","num_feature":"17","num_nodes":"27","size_leaf_vector":"1"}},{"base_weights":[-1.1661963E-1,-7.4425797E0,5.3714985E1,-1.183238E1,6.293488E0,4.6067303E1,1.24689224E2,-1.51182575E1,-7.0181932E0,1.8042725E0,1.5504535E1,3.4483746E1,6.1521122E1,1.04385666E2,4.673584E0,-5.291085E-1,-3.957156E-1,-2.6166734E-1,-1.2911302E-1,-4.935045E-4,1.5615626E-1,3.7326312E-1,6.0914075E-1,9.106649E-1,1.2414619E0,1.6576291E0,2.205893E0,3.4029937E0,2.6117692E0],"categories":[],"categories_nodes":[],"categories_segments":[],"categories_sizes":[],"default_left":[0,0,0,0,0,0,0,0,0,0,0,0,0,0,0,0,0,0,0,0,0,0,0,0,0,0,0,0,0],"id":9,"left_children":[1,3,5,7,9,11,13,15,17,19,21,23,25,27,-1,-1,-1,-1,-1,-1,-1,-1,-1,-1,-1,-1,-1,-1,-1],"loss_changes":[3.8782222E6,5.2201906E5,6.3366075E5,1.03665375E5,8.6683766E4,1.8852425E5,5.5715375E4,1.8693625E4,1.2280219E4,8.737227E3,9.846375E3,1.6143875E4,3.0178625E4,1.4115625E3,0E0,0E0,0E0,0E0,0E0,0E0,0E0,0E0,0E0,0E0,0E0,0E0,0E0,0E0,0E0],"parents":[2147483647,0,0,1,1,2,2,3,3,4,4,5,5,6,6,7,7,8,8,9,9,10,10,11,11,12,12,13,13],"right_children":[2,4,6,8,10,12,14,16,18,20,22,24,26,28,-1,-1,-1,-1,-1,-1,-1,-1,-1,-1,-1,-1,-1,-1,-1],"split_conditions":[7.582667E1,4.0768665E1,1.6165134E2,2.9824667E1,5.6074E1,1.07098E2,2.1639867E2,2.3746666E1,3.593E1,4.8372E1,6.649467E1,9.3872E1,1.30826E2,1.998E4,4.673584E0,-5.291085E-1,-3.957156E-1,-2.6166734E-1,-1.2911302E-1,-4.935045E-4,1.5615626E-1,3.7326312E-1,6.0914075E-1,9.106649E-1,1.2414619E0,1.6576291E0,2.205893E0,3.4029937E0,2.6117692E0],"split_indices":[2,2,2,2,2,2,2,2,2,2,2,2,2,1,0,0,0,0,0,0,0,0,0,0,0,0,0,0,0],"split_type":[0,0,0,0,0,0,0,0,0,0,0,0,0,0,0,0,0,0,0,0,0,0,0,0,0,0,0,0,0],"sum_hessian":[9.832E3,8.655E3,1.177E3,6.559E3,2.096E3,1.064E3,1.13E2,3.897E3,2.662E3,1.41E3,6.86E2,6.1E2,4.54E2,7.1E1,4.2E1,1.686E3,2.211E3,1.634E3,1.028E3,9.19E2,4.91E2,4.21E2,2.65E2,3.85E2,2.25E2,3.02E2,1.52E2,4.3E1,2.8E1],"tree_param":{"num_deleted":"0","num_feature":"17","num_nodes":"29","size_leaf_vector":"1"}},{"base_weights":[1.3927005E-1,-7.1128197E0,5.2998558E1,-1.1462598E1,6.092355E0,4.4259422E1,1.1030351E2,-1.4654507E1,-6.829401E0,1.4231762E0,1.4597253E1,3.581605E1,6.0327133E1,9.367351E1,4.515165E0,-5.015284E-1,-3.7385994E-1,-2.518128E-1,-1.2903608E-1,-1.1346106E-2,1.1788668E-1,3.4856525E-1,5.866589E-1,8.2102627E-1,1.2247335E0,1.5712812E0,1.9305454E0,2.524949E0,3.327895E0],"categories":[],"categories_nodes":[],"categories_segments":[],"categories_sizes":[],"default_left":[0,0,0,0,0,0,0,0,0,0,0,0,0,0,0,0,0,0,0,0,0,0,0,0,0,0,0,0,0],"id":10,"left_children":[1,3,5,7,9,11,13,15,17,19,21,23,25,27,-1,-1,-1,-1,-1,-1,-1,-1,-1,-1,-1,-1,-1,-1,-1],"loss_changes":[3.7620955E6,4.9577338E5,5.880605E5,9.5908375E4,8.492082E4,1.37439E5,9.019675E4,1.7175062E4,1.044468E4,6.2411357E3,1.0966234E4,2.7529E4,7.925E3,9.2049375E3,0E0,0E0,0E0,0E0,0E0,0E0,0E0,0E0,0E0,0E0,0E0,0E0,0E0,0E0,0E0],"parents":[2147483647,0,0,1,1,2,2,3,3,4,4,5,5,6,6,7,7,8,8,9,9,10,10,11,11,12,12,13,13],"right_children":[2,4,6,8,10,12,14,16,18,20,22,24,26,28,-1,-1,-1,-1,-1,-1,-1,-1,-1,-1,-1,-1,-1,-1,-1],"split_conditions":[7.582667E1,4.0768665E1,1.5083934E2,2.9824667E1,5.5426666E1,1.1149467E2,2.1639867E2,2.457E1,3.593E1,4.7218666E1,6.649467E1,8.7616E1,1.1945267E2,1.7985533E2,4.515165E0,-5.015284E-1,-3.7385994E-1,-2.518128E-1,-1.2903608E-1,-1.1346106E-2,1.1788668E-1,3.4856525E-1,5.866589E-1,8.2102627E-1,1.2247335E0,1.5712812E0,1.9305454E0,2.524949E0,3.327895E0],"split_indices":[2,2,2,2,2,2,2,2,2,2,2,2,2,2,0,0,0,0,0,0,0,0,0,0,0,0,0,0,0],"split_type":[0,0,0,0,0,0,0,0,0,0,0,0,0,0,0,0,0,0,0,0,0,0,0,0,0,0,0,0,0],"sum_hessian":[9.812E3,8.629E3,1.183E3,6.491E3,2.138E3,1.028E3,1.55E2,3.842E3,2.649E3,1.381E3,7.57E2,6.76E2,3.52E2,1.12E2,4.3E1,1.976E3,1.866E3,1.635E3,1.014E3,8.04E2,5.77E2,4.75E2,2.82E2,2.54E2,4.22E2,1.23E2,2.29E2,7.6E1,3.6E1],"tree_param":{"num_deleted":"0","num_feature":"17","num_nodes":"29","size_leaf_vector":"1"}},{"base_weights":[-1.1694825E-1,-7.001694E0,5.0520103E1,-1.1163716E1,5.877022E0,4.2731335E1,1.0582653E2,-1.4368121E1,-6.915012E0,1.975452E0,1.5225018E1,3.31954E1,5.6151455E1,2.4137135E0,1.2809364E2,-4.9084345E-1,-3.7209874E-1,-2.6267892E-1,-1.4076982E-1,-2.818044E-3,1.6000058E-1,3.6406717E-1,5.747669E-1,8.235666E-1,1.1665661E0,1.4527795E0,1.8649774E0,3.2961273E0,4.2387524E0],"categories":[],"categories_nodes":[],"categories_segments":[],"categories_sizes":[],"default_left":[0,0,0,0,0,0,0,0,0,0,0,0,0,0,0,0,0,0,0,0,0,0,0,0,0,0,0,0,0],"id":11,"left_children":[1,3,5,7,9,11,13,15,17,19,21,23,25,-1,27,-1,-1,-1,-1,-1,-1,-1,-1,-1,-1,-1,-1,-1,-1],"loss_changes":[3.4137238E6,4.6211053E5,5.0033925E5,8.85995E4,7.677966E4,1.298205E5,7.1040125E4,1.433925E4,1.1428375E4,1.0333361E4,7.302672E3,1.8671E4,1.6783375E4,0E0,2.514125E3,0E0,0E0,0E0,0E0,0E0,0E0,0E0,0E0,0E0,0E0,0E0,0E0,0E0,0E0],"parents":[2147483647,0,0,1,1,2,2,3,3,4,4,5,5,6,6,7,7,8,8,9,9,10,10,11,11,12,12,14,14],"right_children":[2,4,6,8,10,12,14,16,18,20,22,24,26,-1,28,-1,-1,-1,-1,-1,-1,-1,-1,-1,-1,-1,-1,-1,-1],"split_conditions":[7.582667E1,4.0768665E1,1.5083934E2,2.9391333E1,5.7370667E1,1.07098E2,1.7985533E2,2.4172667E1,3.4774E1,4.8372E1,6.649467E1,8.9918E1,1.1945267E2,2.4137135E0,2.1639867E2,-4.9084345E-1,-3.7209874E-1,-2.6267892E-1,-1.4076982E-1,-2.818044E-3,1.6000058E-1,3.6406717E-1,5.747669E-1,8.235666E-1,1.1665661E0,1.4527795E0,1.8649774E0,3.2961273E0,4.2387524E0],"split_indices":[2,2,2,2,2,2,2,2,2,2,2,2,2,0,2,0,0,0,0,0,0,0,0,0,0,0,0,0,0],"split_type":[0,0,0,0,0,0,0,0,0,0,0,0,0,0,0,0,0,0,0,0,0,0,0,0,0,0,0,0,0],"sum_hessian":[9.79E3,8.619E3,1.171E3,6.514E3,2.105E3,1.028E3,1.43E2,3.712E3,2.802E3,1.486E3,6.19E2,6.03E2,4.25E2,6.9E1,7.4E1,1.839E3,1.873E3,1.531E3,1.271E3,9.2E2,5.66E2,3.49E2,2.7E2,3.03E2,3E2,1.9E2,2.35E2,3.5E1,3.9E1],"tree_param":{"num_deleted":"0","num_feature":"17","num_nodes":"29","size_leaf_vector":"1"}},{"base_weights":[2.2925833E-2,-6.762631E0,4.9131744E1,-1.0835514E1,5.76572E0,4.1749416E1,1.1267599E2,-1.4231603E1,-7.0760927E0,1.9430039E0,1.496408E1,3.2103676E1,5.500262E1,9.408572E1,4.2645984E0,-5.1365465E-1,-3.9324126E-1,-2.73675E-1,-1.473371E-1,2.1591396E-3,1.6073564E-1,3.3165467E-1,5.1891273E-1,8.338852E-1,1.1749219E0,1.4092985E0,1.8380284E0,3.0799956E0,2.4109523E0],"categories":[],"categories_nodes":[],"categories_segments":[],"categories_sizes":[],"default_left":[0,0,0,0,0,0,0,0,0,0,0,0,0,0,0,0,0,0,0,0,0,0,0,0,0,0,0,0,0],"id":12,"left_children":[1,3,5,7,9,11,13,15,17,19,21,23,25,27,-1,-1,-1,-1,-1,-1,-1,-1,-1,-1,-1,-1,-1,-1,-1],"loss_changes":[3.2856535E6,4.421051E5,5.568135E5,8.3372125E4,7.472687E4,1.3553112E5,5.4576375E4,1.09269375E4,1.3710906E4,9.602728E3,5.4993906E3,1.7888875E4,1.9799375E4,1.0501875E3,0E0,0E0,0E0,0E0,0E0,0E0,0E0,0E0,0E0,0E0,0E0,0E0,0E0,0E0,0E0],"parents":[2147483647,0,0,1,1,2,2,3,3,4,4,5,5,6,6,7,7,8,8,9,9,10,10,11,11,12,12,13,13],"right_children":[2,4,6,8,10,12,14,16,18,20,22,24,26,28,-1,-1,-1,-1,-1,-1,-1,-1,-1,-1,-1,-1,-1,-1,-1],"split_conditions":[7.582667E1,4.0768665E1,1.6165134E2,2.8488E1,5.7370667E1,1.07098E2,2.1639867E2,2.1619333E1,3.3804E1,4.8666E1,6.3418E1,9.3872E1,1.1945267E2,1.998E4,4.2645984E0,-5.1365465E-1,-3.9324126E-1,-2.73675E-1,-1.473371E-1,2.1591396E-3,1.6073564E-1,3.3165467E-1,5.1891273E-1,8.338852E-1,1.1749219E0,1.4092985E0,1.8380284E0,3.0799956E0,2.4109523E0],"split_indices":[2,2,2,2,2,2,2,2,2,2,2,2,2,1,0,0,0,0,0,0,0,0,0,0,0,0,0,0,0],"split_type":[0,0,0,0,0,0,0,0,0,0,0,0,0,0,0,0,0,0,0,0,0,0,0,0,0,0,0,0,0],"sum_hessian":[9.858E3,8.662E3,1.196E3,6.537E3,2.125E3,1.073E3,1.23E2,3.433E3,3.104E3,1.502E3,6.23E2,6.23E2,4.5E2,7.8E1,4.5E1,9.57E2,2.476E3,1.594E3,1.51E3,9.71E2,5.31E2,2.35E2,3.88E2,3.9E2,2.33E2,2.01E2,2.49E2,4.4E1,3.4E1],"tree_param":{"num_deleted":"0","num_feature":"17","num_nodes":"29","size_leaf_vector":"1"}},{"base_weights":[-1.366716E-1,-6.7788167E0,4.58467E1,-1.1221363E1,3.1354258E0,3.6211227E1,8.870941E1,-1.4137795E1,-8.075269E0,-5.389481E-1,1.148448E1,2.7699404E1,4.7128273E1,2.1346776E0,1.235698E2,-5.0121933E-1,-3.906098E-1,-2.9820964E-1,-1.9822995E-1,-6.928585E-2,6.396019E-2,2.5940976E-1,4.8192522E-1,6.615408E-1,9.486838E-1,1.2752712E0,1.603486E0,3.0710318E0,4.1596565E0],"categories":[],"categories_nodes":[],"categories_segments":[],"categories_sizes":[],"default_left":[0,0,0,0,0,0,0,0,0,0,0,0,0,0,0,0,0,0,0,0,0,0,0,0,0,0,0,0,0],"id":13,"left_children":[1,3,5,7,9,11,13,15,17,19,21,23,25,-1,27,-1,-1,-1,-1,-1,-1,-1,-1,-1,-1,-1,-1,-1,-1],"loss_changes":[3.0151925E6,3.799628E5,5.1138875E5,5.4543562E4,8.191524E4,9.3384125E4,1.30725375E5,8.655E3,7.7844844E3,8.777478E3,1.0464875E4,1.2044375E4,1.07215625E4,0E0,9.7945E3,0E0,0E0,0E0,0E0,0E0,0E0,0E0,0E0,0E0,0E0,0E0,0E0,0E0,0E0],"parents":[2147483647,0,0,1,1,2,2,3,3,4,4,5,5,6,6,7,7,8,8,9,9,10,10,11,11,12,12,14,14],"right_children":[2,4,6,8,10,12,14,16,18,20,22,24,26,-1,28,-1,-1,-1,-1,-1,-1,-1,-1,-1,-1,-1,-1,-1,-1],"split_conditions":[7.3112E1,3.7629333E1,1.3636867E2,2.745E1,5.2427334E1,1.0004733E2,1.7985533E2,2.15E1,3.1262E1,4.4275333E1,6.3418E1,8.2294E1,1.1690733E2,2.1346776E0,2.1639867E2,-5.0121933E-1,-3.906098E-1,-2.9820964E-1,-1.9822995E-1,-6.928585E-2,6.396019E-2,2.5940976E-1,4.8192522E-1,6.615408E-1,9.486838E-1,1.2752712E0,1.603486E0,3.0710318E0,4.1596565E0],"split_indices":[2,2,2,2,2,2,2,2,2,2,2,2,2,0,2,0,0,0,0,0,0,0,0,0,0,0,0,0,0],"split_type":[0,0,0,0,0,0,0,0,0,0,0,0,0,0,0,0,0,0,0,0,0,0,0,0,0,0,0,0,0],"sum_hessian":[9.87E3,8.625E3,1.245E3,5.956E3,2.669E3,1.018E3,2.27E2,3.089E3,2.867E3,1.854E3,8.15E2,5.74E2,4.44E2,1.53E2,7.4E1,9.32E2,2.157E3,1.26E3,1.607E3,1.115E3,7.39E2,5.05E2,3.1E2,2.38E2,3.36E2,2.61E2,1.83E2,3.4E1,4E1],"tree_param":{"num_deleted":"0","num_feature":"17","num_nodes":"29","size_leaf_vector":"1"}},{"base_weights":[-1.4584923E-1,-6.653741E0,4.4523483E1,-1.0815057E1,3.2798047E0,3.8245205E1,1.053159E2,-1.4069064E1,-8.055259E0,2.177013E-2,1.1974125E1,2.947667E1,5.4146603E1,9.013908E1,3.9683344E0,-5.08875E-1,-3.9700186E-1,-3.0100048E-1,-1.9127065E-1,-6.6749975E-2,6.893369E-2,2.6929253E-1,4.7040248E-1,6.990512E-1,1.0473316E0,1.4985614E0,1.943061E0,2.9812157E0,2.2786267E0],"categories":[],"categories_nodes":[],"categories_segments":[],"categories_sizes":[],"default_left":[0,0,0,0,0,0,0,0,0,0,0,0,0,0,0,0,0,0,0,0,0,0,0,0,0,0,0,0,0],"id":14,"left_children":[1,3,5,7,9,11,13,15,17,19,21,23,25,27,-1,-1,-1,-1,-1,-1,-1,-1,-1,-1,-1,-1,-1,-1,-1],"loss_changes":[2.8712808E6,3.5639847E5,4.75352E5,5.4451562E4,7.211875E4,1.5735638E5,3.59525E4,6.514375E3,1.0866531E4,9.480782E3,7.5691484E3,2.3918125E4,1.4764875E4,2.669625E3,0E0,0E0,0E0,0E0,0E0,0E0,0E0,0E0,0E0,0E0,0E0,0E0,0E0,0E0,0E0],"parents":[2147483647,0,0,1,1,2,2,3,3,4,4,5,5,6,6,7,7,8,8,9,9,10,10,11,11,12,12,13,13],"right_children":[2,4,6,8,10,12,14,16,18,20,22,24,26,28,-1,-1,-1,-1,-1,-1,-1,-1,-1,-1,-1,-1,-1,-1,-1],"split_conditions":[7.3112E1,3.8229332E1,1.6165134E2,2.6596E1,5.4776E1,1.0929667E2,2.1639867E2,2.035E1,3.1028E1,4.376E1,6.3418E1,8.7616E1,1.3636867E2,1.998E4,3.9683344E0,-5.08875E-1,-3.9700186E-1,-3.0100048E-1,-1.9127065E-1,-6.6749975E-2,6.893369E-2,2.6929253E-1,4.7040248E-1,6.990512E-1,1.0473316E0,1.4985614E0,1.943061E0,2.9812157E0,2.2786267E0],"split_indices":[2,2,2,2,2,2,2,2,2,2,2,2,2,1,0,0,0,0,0,0,0,0,0,0,0,0,0,0,0],"split_type":[0,0,0,0,0,0,0,0,0,0,0,0,0,0,0,0,0,0,0,0,0,0,0,0,0,0,0,0,0],"sum_hessian":[9.875E3,8.62E3,1.255E3,6.075E3,2.545E3,1.139E3,1.16E2,2.786E3,3.289E3,1.852E3,6.93E2,7.36E2,4.03E2,7.7E1,3.9E1,6.2E2,2.166E3,1.508E3,1.781E3,9.32E2,9.2E2,3.85E2,3.08E2,3.47E2,3.89E2,2.93E2,1.1E2,4.3E1,3.4E1],"tree_param":{"num_deleted":"0","num_feature":"17","num_nodes":"29","size_leaf_vector":"1"}},{"base_weights":[5.7838805E-2,-6.16006E0,4.5091873E1,-9.909748E0,5.258899E0,3.7617104E1,9.4442955E1,-1.2591186E1,-5.9273825E0,1.8135874E0,1.3531348E1,2.9462101E1,4.9847385E1,2.163226E0,1.1585393E2,-4.3752483E-1,-3.2353765E-1,-2.187802E-1,-1.0926404E-1,-9.236326E-3,1.2937735E-1,3.387037E-1,5.205243E-1,7.7468145E-1,1.1016456E0,1.3335603E0,1.687696E0,2.9146378E0,3.9107792E0],"categories":[],"categories_nodes":[],"categories_segments":[],"categories_sizes":[],"default_left":[0,0,0,0,0,0,0,0,0,0,0,0,0,0,0,0,0,0,0,0,0,0,0,0,0,0,0,0,0],"id":15,"left_children":[1,3,5,7,9,11,13,15,17,19,21,23,25,-1,27,-1,-1,-1,-1,-1,-1,-1,-1,-1,-1,-1,-1,-1,-1],"loss_changes":[2.7489252E6,3.6939628E5,4.3579275E5,6.927131E4,6.0768453E4,1.0186E5,6.6248875E4,1.3812625E4,8.1323125E3,7.990721E3,5.1713906E3,1.55376875E4,1.17806875E4,0E0,8.49175E3,0E0,0E0,0E0,0E0,0E0,0E0,0E0,0E0,0E0,0E0,0E0,0E0,0E0,0E0],"parents":[2147483647,0,0,1,1,2,2,3,3,4,4,5,5,6,6,7,7,8,8,9,9,10,10,11,11,12,12,14,14],"right_children":[2,4,6,8,10,12,14,16,18,20,22,24,26,-1,28,-1,-1,-1,-1,-1,-1,-1,-1,-1,-1,-1,-1,-1,-1],"split_conditions":[7.582667E1,4.0768665E1,1.5083934E2,2.9824667E1,5.7370667E1,1.07098E2,1.7985533E2,2.4172667E1,3.593E1,4.7218666E1,6.7378E1,9.607533E1,1.23304E2,2.163226E0,2.1639867E2,-4.3752483E-1,-3.2353765E-1,-2.187802E-1,-1.0926404E-1,-9.236326E-3,1.2937735E-1,3.387037E-1,5.205243E-1,7.7468145E-1,1.1016456E0,1.3335603E0,1.687696E0,2.9146378E0,3.9107792E0],"split_indices":[2,2,2,2,2,2,2,2,2,2,2,2,2,0,2,0,0,0,0,0,0,0,0,0,0,0,0,0,0],"split_type":[0,0,0,0,0,0,0,0,0,0,0,0,0,0,0,0,0,0,0,0,0,0,0,0,0,0,0,0,0],"sum_hessian":[9.815E3,8.625E3,1.19E3,6.493E3,2.132E3,1.035E3,1.55E2,3.879E3,2.614E3,1.506E3,6.26E2,6.23E2,4.12E2,7.8E1,7.7E1,1.841E3,2.038E3,1.635E3,9.79E2,8.15E2,6.91E2,3.97E2,2.29E2,4.18E2,2.05E2,2.28E2,1.84E2,3.7E1,4E1],"tree_param":{"num_deleted":"0","num_feature":"17","num_nodes":"29","size_leaf_vector":"1"}},{"base_weights":[-7.634034E-2,-6.4264755E0,3.9385937E1,-9.683034E0,2.0452497E0,3.3774567E1,9.5136734E1,-1.1921621E1,-6.5199485E0,-7.027244E-2,1.0269982E1,2.3765537E1,4.4291943E1,7.006824E1,1.1541786E2,-4.1654927E-1,-3.1983593E-1,-2.330821E-1,-1.2589242E-1,-6.385884E-2,8.1915885E-2,2.3019604E-1,4.154764E-1,5.863042E-1,7.959831E-1,1.165723E0,1.6033111E0,2.5881643E0,1.8722814E0,2.3771245E0,3.611255E0],"categories":[],"categories_nodes":[],"categories_segments":[],"categories_sizes":[],"default_left":[0,0,0,0,0,0,0,0,0,0,0,0,0,0,0,0,0,0,0,0,0,0,0,0,0,0,0,0,0,0,0],"id":16,"left_children":[1,3,5,7,9,11,13,15,17,19,21,23,25,27,29,-1,-1,-1,-1,-1,-1,-1,-1,-1,-1,-1,-1,-1,-1,-1,-1],"loss_changes":[2.4623075E6,2.3353022E5,4.228725E5,4.3214562E4,4.090719E4,1.2937525E5,5.4956625E4,8.708781E3,7.329789E3,1.0792214E4,4.364379E3,6.9237812E3,2.791375E4,1.8138125E3,2.478625E3,0E0,0E0,0E0,0E0,0E0,0E0,0E0,0E0,0E0,0E0,0E0,0E0,0E0,0E0,0E0,0E0],"parents":[2147483647,0,0,1,1,2,2,3,3,4,4,5,5,6,6,7,7,8,8,9,9,10,10,11,11,12,12,13,13,14,14],"right_children":[2,4,6,8,10,12,14,16,18,20,22,24,26,28,30,-1,-1,-1,-1,-1,-1,-1,-1,-1,-1,-1,-1,-1,-1,-1,-1],"split_conditions":[6.889533E1,3.868489E1,1.6067044E2,2.895E1,5.6114666E1,9.810733E1,1.6165134E2,2.3378222E1,3.5768E1,4.5108E1,6.2954666E1,7.912444E1,1.2260555E2,2.005E4,1.7985533E2,-4.1654927E-1,-3.1983593E-1,-2.330821E-1,-1.2589242E-1,-6.385884E-2,8.1915885E-2,2.3019604E-1,4.154764E-1,5.863042E-1,7.959831E-1,1.165723E0,1.6033111E0,2.5881643E0,1.8722814E0,2.3771245E0,3.611255E0],"split_indices":[12,12,12,11,12,12,10,12,11,11,12,12,12,1,7,0,0,0,0,0,0,0,0,0,0,0,0,0,0,0,0],"split_type":[0,0,0,0,0,0,0,0,0,0,0,0,0,0,0,0,0,0,0,0,0,0,0,0,0,0,0,0,0,0,0],"sum_hessian":[9.824E3,8.463E3,1.361E3,6.113E3,2.35E3,1.238E3,1.23E2,3.578E3,2.535E3,1.87E3,4.8E2,6.36E2,6.02E2,5.7E1,6.6E1,1.395E3,2.183E3,1.647E3,8.88E2,1.078E3,7.92E2,2.8E2,2E2,2.55E2,3.81E2,3.81E2,2.21E2,1.5E1,4.2E1,1E1,5.6E1],"tree_param":{"num_deleted":"0","num_feature":"17","num_nodes":"31","size_leaf_vector":"1"}},{"base_weights":[3.302294E-2,-5.700899E0,4.3509377E1,-9.845029E0,3.6641421E0,3.698142E1,9.728994E1,-1.2897648E1,-7.276015E0,1.9159459E-1,1.2158349E1,2.9198236E1,5.0403725E1,2.457943E0,3.690101E0,-4.6119663E-1,-3.6211807E-1,-2.6495016E-1,-1.6042544E-1,-5.663749E-2,7.689737E-2,2.7705422E-1,4.705506E-1,7.346347E-1,1.0698222E0,1.302639E0,1.71794E0],"categories":[],"categories_nodes":[],"categories_segments":[],"categories_sizes":[],"default_left":[0,0,0,0,0,0,0,0,0,0,0,0,0,0,0,0,0,0,0,0,0,0,0,0,0,0,0],"id":17,"left_children":[1,3,5,7,9,11,13,15,17,19,21,23,25,-1,-1,-1,-1,-1,-1,-1,-1,-1,-1,-1,-1,-1,-1],"loss_changes":[2.4432905E6,3.360914E5,3.9733225E5,4.6983E4,7.836997E4,1.05086E5,3.849725E4,5.4284688E3,9.739047E3,9.311287E3,7.803539E3,1.8852562E4,1.53825E4,0E0,0E0,0E0,0E0,0E0,0E0,0E0,0E0,0E0,0E0,0E0,0E0,0E0,0E0],"parents":[2147483647,0,0,1,1,2,2,3,3,4,4,5,5,6,6,7,7,8,8,9,9,10,10,11,11,12,12],"right_children":[2,4,6,8,10,12,14,16,18,20,22,24,26,-1,-1,-1,-1,-1,-1,-1,-1,-1,-1,-1,-1,-1,-1],"split_conditions":[7.71E1,3.8229332E1,1.6165134E2,2.6596E1,5.5426666E1,1.1149467E2,2.1639867E2,2.0624E1,3.2073334E1,4.4275333E1,6.554867E1,9.607533E1,1.2660133E2,2.457943E0,3.690101E0,-4.6119663E-1,-3.6211807E-1,-2.6495016E-1,-1.6042544E-1,-5.663749E-2,7.689737E-2,2.7705422E-1,4.705506E-1,7.346347E-1,1.0698222E0,1.302639E0,1.71794E0],"split_indices":[2,2,2,2,2,2,2,2,2,2,2,2,2,0,0,0,0,0,0,0,0,0,0,0,0,0,0],"split_type":[0,0,0,0,0,0,0,0,0,0,0,0,0,0,0,0,0,0,0,0,0,0,0,0,0,0,0],"sum_hessian":[9.799E3,8.658E3,1.141E3,6.002E3,2.656E3,1.019E3,1.22E2,2.741E3,3.261E3,1.886E3,7.7E2,6.47E2,3.72E2,7.9E1,4.3E1,6.82E2,2.059E3,1.803E3,1.458E3,1.005E3,8.81E2,4.23E2,3.47E2,3.77E2,2.7E2,1.88E2,1.84E2],"tree_param":{"num_deleted":"0","num_feature":"17","num_nodes":"27","size_leaf_vector":"1"}},{"base_weights":[1.3644555E-1,-6.1835737E0,3.5924362E1,-9.721652E0,2.0912814E-1,2.8246847E1,6.917491E1,-1.1933196E1,-7.6937056E0,-2.5225656E0,4.9116015E0,2.1821402E1,3.8717587E1,5.6848877E1,1.0020932E2,-4.1202223E-1,-3.289216E-1,-1.2510689E-1,-2.4377076E-1,-1.4279352E-1,-2.4883188E-2,6.2276945E-2,2.9217026E-1,5.238331E-1,7.703308E-1,9.6137565E-1,1.273391E0,1.3783115E0,1.8576223E0,2.4261081E0,3.4967897E0],"categories":[],"categories_nodes":[],"categories_segments":[],"categories_sizes":[],"default_left":[0,0,0,0,0,0,0,0,0,0,0,0,0,0,0,0,0,0,0,0,0,0,0,0,0,0,0,0,0,0,0],"id":18,"left_children":[1,3,5,7,9,11,13,15,17,19,21,23,25,27,29,-1,-1,-1,-1,-1,-1,-1,-1,-1,-1,-1,-1,-1,-1,-1,-1],"loss_changes":[2.2468712E6,1.9096481E5,3.7867075E5,2.4283562E4,3.8665156E4,8.076475E4,1.010295E5,4.38375E3,4.2858125E3,7.2082E3,1.5119924E4,1.22298125E4,1.0083375E4,8.3276875E3,1.52374375E4,0E0,0E0,0E0,0E0,0E0,0E0,0E0,0E0,0E0,0E0,0E0,0E0,0E0,0E0,0E0,0E0],"parents":[2147483647,0,0,1,1,2,2,3,3,4,4,5,5,6,6,7,7,8,8,9,9,10,10,11,11,12,12,13,13,14,14],"right_children":[2,4,6,8,10,12,14,16,18,20,22,24,26,28,30,-1,-1,-1,-1,-1,-1,-1,-1,-1,-1,-1,-1,-1,-1,-1,-1],"split_conditions":[6.673978E1,3.5428E1,1.3027045E2,2.6275778E1,4.6446445E1,9.810733E1,1.5735678E2,2.1589111E1,4.1E1,3.5942E1,5.0631695E1,7.912444E1,9.3872E1,1.1149467E2,2.1639867E2,-4.1202223E-1,-3.289216E-1,-1.2510689E-1,-2.4377076E-1,-1.4279352E-1,-2.4883188E-2,6.2276945E-2,2.9217026E-1,5.238331E-1,7.703308E-1,9.6137565E-1,1.273391E0,1.3783115E0,1.8576223E0,2.4261081E0,3.4967897E0],"split_indices":[12,12,12,12,12,12,14,12,4,14,14,12,10,10,7,0,0,0,0,0,0,0,0,0,0,0,0,0,0,0,0],"split_type":[0,0,0,0,0,0,0,0,0,0,0,0,0,0,0,0,0,0,0,0,0,0,0,0,0,0,0,0,0,0,0],"sum_hessian":[9.932E3,8.442E3,1.49E3,5.434E3,3.008E3,1.212E3,2.78E2,2.597E3,2.837E3,1.903E3,1.105E3,7.53E2,4.59E2,2.01E2,7.7E1,9.04E2,1.693E3,3.11E2,2.526E3,8.19E2,1.084E3,6.97E2,4.08E2,3.56E2,3.97E2,1.68E2,2.91E2,6.7E1,1.34E2,3.8E1,3.9E1],"tree_param":{"num_deleted":"0","num_feature":"17","num_nodes":"31","size_leaf_vector":"1"}},{"base_weights":[-1.8211275E-2,-5.6883903E0,3.8356285E1,-9.361146E0,2.5666788E0,3.2115635E1,8.528151E1,-1.2300792E1,-7.040116E0,-4.8184815E-1,9.475509E0,2.3135906E1,4.177007E1,6.486155E1,1.0229563E2,-4.5246726E-1,-3.487399E-1,-2.6231602E-1,-1.6837493E-1,-6.991738E-2,4.2930774E-2,1.9620548E-1,3.8244194E-1,5.3823763E-1,7.914971E-1,1.095836E0,1.4497057E0,2.1384943E0,1.6344995E0,2.612038E0,3.4704382E0],"categories":[],"categories_nodes":[],"categories_segments":[],"categories_sizes":[],"default_left":[0,0,0,0,0,0,0,0,0,0,0,0,0,0,0,0,0,0,0,0,0,0,0,0,0,0,0,0,0,0,0],"id":19,"left_children":[1,3,5,7,9,11,13,15,17,19,21,23,25,27,29,-1,-1,-1,-1,-1,-1,-1,-1,-1,-1,-1,-1,-1,-1,-1,-1],"loss_changes":[2.1397835E6,2.597959E5,3.680015E5,4.0373812E4,5.558654E4,9.6044375E4,4.478425E4,4.7425312E3,8.0164688E3,6.482002E3,7.6782812E3,9.344281E3,1.6717562E4,7.8140625E2,6.0305625E3,0E0,0E0,0E0,0E0,0E0,0E0,0E0,0E0,0E0,0E0,0E0,0E0,0E0,0E0,0E0,0E0],"parents":[2147483647,0,0,1,1,2,2,3,3,4,4,5,5,6,6,7,7,8,8,9,9,10,10,11,11,12,12,13,13,14,14],"right_children":[2,4,6,8,10,12,14,16,18,20,22,24,26,28,30,-1,-1,-1,-1,-1,-1,-1,-1,-1,-1,-1,-1,-1,-1,-1,-1],"split_conditions":[7.3112E1,3.7629333E1,1.5083934E2,2.6161333E1,5.2427334E1,1.0004733E2,1.7985533E2,1.9875334E1,3.0725334E1,4.2892666E1,6.1228E1,8.2294E1,1.1945267E2,1.6165134E2,2.1639867E2,-4.5246726E-1,-3.487399E-1,-2.6231602E-1,-1.6837493E-1,-6.991738E-2,4.2930774E-2,1.9620548E-1,3.8244194E-1,5.3823763E-1,7.914971E-1,1.095836E0,1.4497057E0,2.1384943E0,1.6344995E0,2.612038E0,3.4704382E0],"split_indices":[2,2,2,2,2,2,2,2,2,2,2,2,2,7,2,0,0,0,0,0,0,0,0,0,0,0,0,0,0,0,0],"split_type":[0,0,0,0,0,0,0,0,0,0,0,0,0,0,0,0,0,0,0,0,0,0,0,0,0,0,0,0,0,0,0],"sum_hessian":[9.832E3,8.567E3,1.265E3,5.929E3,2.638E3,1.118E3,1.47E2,2.614E3,3.315E3,1.831E3,8.07E2,5.81E2,5.37E2,6.9E1,7.8E1,5.07E2,2.107E3,1.509E3,1.806E3,9.31E2,9E2,4.27E2,3.8E2,2.26E2,3.55E2,3.02E2,2.35E2,3.9E1,3E1,4E1,3.8E1],"tree_param":{"num_deleted":"0","num_feature":"17","num_nodes":"31","size_leaf_vector":"1"}},{"base_weights":[9.804158E-2,-5.4911165E0,3.7306786E1,-8.955189E0,2.8927479E0,2.9382528E1,7.2371346E1,-1.1253802E1,-6.0184484E0,-2.5846437E-1,9.2449E0,2.1164734E1,3.7178333E1,5.749648E1,1.01204994E2,-3.8848776E-1,-2.982205E-1,-2.1501905E-1,-1.2960084E-1,-4.9117785E-2,5.9531324E-2,2.0685697E-1,3.9230084E-1,5.234595E-1,7.0925313E-1,9.8343277E-1,1.2412044E0,1.5305218E0,1.8547477E0,2.3126087E0,3.2920218E0],"categories":[],"categories_nodes":[],"categories_segments":[],"categories_sizes":[],"default_left":[0,0,0,0,0,0,0,0,0,0,0,0,0,0,0,0,0,0,0,0,0,0,0,0,0,0,0,0,0,0,0],"id":20,"left_children":[1,3,5,7,9,11,13,15,17,19,21,23,25,27,29,-1,-1,-1,-1,-1,-1,-1,-1,-1,-1,-1,-1,-1,-1,-1,-1],"loss_changes":[2.0447141E6,2.4827956E5,3.5464675E5,4.0765594E4,5.0044836E4,6.641656E4,9.540075E4,7.4245E3,5.1554297E3,5.173775E3,7.3736953E3,4.3095938E3,8.5498125E3,1.276875E3,7.7915E3,0E0,0E0,0E0,0E0,0E0,0E0,0E0,0E0,0E0,0E0,0E0,0E0,0E0,0E0,0E0,0E0],"parents":[2147483647,0,0,1,1,2,2,3,3,4,4,5,5,6,6,7,7,8,8,9,9,10,10,11,11,12,12,13,13,14,14],"right_children":[2,4,6,8,10,12,14,16,18,20,22,24,26,28,30,-1,-1,-1,-1,-1,-1,-1,-1,-1,-1,-1,-1,-1,-1,-1,-1],"split_conditions":[7.3112E1,3.8464E1,1.3636867E2,2.8488E1,5.2427334E1,9.607533E1,1.7985533E2,2.3159334E1,3.3630665E1,4.4788E1,6.3418E1,8.0436E1,1.1149467E2,1.1414667E2,1.6165134E2,-3.8848776E-1,-2.982205E-1,-2.1501905E-1,-1.2960084E-1,-4.9117785E-2,5.9531324E-2,2.0685697E-1,3.9230084E-1,5.234595E-1,7.0925313E-1,9.8343277E-1,1.2412044E0,1.5305218E0,1.8547477E0,2.3126087E0,3.2920218E0],"split_indices":[2,2,2,2,2,2,2,2,2,2,2,2,2,10,10,0,0,0,0,0,0,0,0,0,0,0,0,0,0,0,0],"split_type":[0,0,0,0,0,0,0,0,0,0,0,0,0,0,0,0,0,0,0,0,0,0,0,0,0,0,0,0,0,0,0],"sum_hessian":[9.83E3,8.547E3,1.283E3,6.048E3,2.499E3,1.048E3,2.35E2,3.391E3,2.657E3,1.671E3,8.28E2,5.12E2,5.36E2,1.57E2,7.8E1,1.476E3,1.915E3,1.583E3,1.074E3,1.035E3,6.36E2,5.15E2,3.13E2,2.08E2,3.04E2,2.66E2,2.7E2,6.8E1,8.9E1,2.3E1,5.5E1],"tree_param":{"num_deleted":"0","num_feature":"17","num_nodes":"31","size_leaf_vector":"1"}},{"base_weights":[1.573099E-1,-5.350399E0,3.6294678E1,-8.756939E0,2.8485441E0,2.8734219E1,6.975599E1,-1.15701E1,-6.627394E0,-7.7804275E-2,9.361645E0,2.0894154E1,3.6093525E1,5.694643E1,9.563038E1,-4.278326E-1,-3.2797942E-1,-2.4638885E-1,-1.5563886E-1,-4.7175515E-2,6.2440045E-2,1.8965279E-1,3.519953E-1,5.2064747E-1,7.1352834E-1,9.789687E-1,1.2648236E0,1.8663111E0,1.4662099E0,2.1871912E0,3.1492095E0],"categories":[],"categories_nodes":[],"categories_segments":[],"categories_sizes":[],"default_left":[0,0,0,0,0,0,0,0,0,0,0,0,0,0,0,0,0,0,0,0,0,0,0,0,0,0,0,0,0,0,0],"id":21,"left_children":[1,3,5,7,9,11,13,15,17,19,21,23,25,27,29,-1,-1,-1,-1,-1,-1,-1,-1,-1,-1,-1,-1,-1,-1,-1,-1],"loss_changes":[1.9654568E6,2.3935733E5,3.2839138E5,3.6191344E4,4.7954695E4,6.0809062E4,7.4099625E4,4.3160625E3,7.826828E3,5.609081E3,5.5489844E3,4.8959844E3,1.015325E4,3.886125E3,8.9074375E3,0E0,0E0,0E0,0E0,0E0,0E0,0E0,0E0,0E0,0E0,0E0,0E0,0E0,0E0,0E0,0E0],"parents":[2147483647,0,0,1,1,2,2,3,3,4,4,5,5,6,6,7,7,8,8,9,9,10,10,11,11,12,12,13,13,14,14],"right_children":[2,4,6,8,10,12,14,16,18,20,22,24,26,28,30,-1,-1,-1,-1,-1,-1,-1,-1,-1,-1,-1,-1,-1,-1,-1,-1],"split_conditions":[7.3112E1,3.8229332E1,1.3636867E2,2.6161333E1,5.3189335E1,9.607533E1,1.7985533E2,1.9875334E1,3.0933332E1,4.4513332E1,6.0009335E1,8.2294E1,1.1690733E2,2.0201E4,1.6165134E2,-4.278326E-1,-3.2797942E-1,-2.4638885E-1,-1.5563886E-1,-4.7175515E-2,6.2440045E-2,1.8965279E-1,3.519953E-1,5.2064747E-1,7.1352834E-1,9.789687E-1,1.2648236E0,1.8663111E0,1.4662099E0,2.1871912E0,3.1492095E0],"split_indices":[2,2,2,2,2,2,2,2,2,2,2,2,2,1,10,0,0,0,0,0,0,0,0,0,0,0,0,0,0,0,0],"split_type":[0,0,0,0,0,0,0,0,0,0,0,0,0,0,0,0,0,0,0,0,0,0,0,0,0,0,0,0,0,0,0],"sum_hessian":[9.873E3,8.568E3,1.305E3,6.053E3,2.515E3,1.066E3,2.39E2,2.606E3,3.447E3,1.736E3,7.79E2,5.18E2,5.48E2,1.62E2,7.7E1,4.95E2,2.111E3,1.638E3,1.809E3,1.026E3,7.1E2,3.43E2,4.36E2,2.36E2,2.82E2,3.53E2,1.95E2,9.4E1,6.8E1,2.5E1,5.2E1],"tree_param":{"num_deleted":"0","num_feature":"17","num_nodes":"31","size_leaf_vector":"1"}},{"base_weights":[2.7879015E-2,-4.7838774E0,3.7572502E1,-7.8165145E0,5.3859653E0,3.221859E1,8.1287964E1,-1.0071744E1,-4.254583E0,1.9222257E0,1.1699194E1,2.5749096E1,4.214653E1,1.9574386E0,9.455409E1,-3.524154E-1,-2.5506294E-1,-1.6966306E-1,-8.025442E-2,8.6930916E-2,-5.6615334E-2,2.6576382E-1,4.221813E-1,6.592878E-1,9.1233885E-1,1.1366938E0,1.459838E0,1.8143314E0,2.930337E0],"categories":[],"categories_nodes":[],"categories_segments":[],"categories_sizes":[],"default_left":[0,0,0,0,0,0,0,0,0,0,0,0,0,0,0,0,0,0,0,0,0,0,0,0,0,0,0,0,0],"id":22,"left_children":[1,3,5,7,9,11,13,15,17,19,21,23,25,-1,27,-1,-1,-1,-1,-1,-1,-1,-1,-1,-1,-1,-1,-1,-1],"loss_changes":[1.7731338E6,2.683627E5,2.5834538E5,5.3794125E4,4.3690402E4,6.2822375E4,1.9577938E4,1.0690375E4,5.7375195E3,4.8064946E3,4.6484844E3,9.973469E3,8.99925E3,0E0,9.053125E2,0E0,0E0,0E0,0E0,0E0,0E0,0E0,0E0,0E0,0E0,0E0,0E0,0E0,0E0],"parents":[2147483647,0,0,1,1,2,2,3,3,4,4,5,5,6,6,7,7,8,8,9,9,10,10,11,11,12,12,14,14],"right_children":[2,4,6,8,10,12,14,16,18,20,22,24,26,-1,28,-1,-1,-1,-1,-1,-1,-1,-1,-1,-1,-1,-1,-1,-1],"split_conditions":[7.8748E1,4.2265335E1,1.6165134E2,3.0725334E1,5.7370667E1,1.1149467E2,1.6165134E2,2.457E1,3.593E1,8.626535E0,6.554867E1,9.607533E1,1.30826E2,1.9574386E0,1.7985533E2,-3.524154E-1,-2.5506294E-1,-1.6966306E-1,-8.025442E-2,8.6930916E-2,-5.6615334E-2,2.6576382E-1,4.221813E-1,6.592878E-1,9.1233885E-1,1.1366938E0,1.459838E0,1.8143314E0,2.930337E0],"split_indices":[2,2,2,2,2,2,10,2,2,15,2,2,2,0,2,0,0,0,0,0,0,0,0,0,0,0,0,0,0],"split_type":[0,0,0,0,0,0,0,0,0,0,0,0,0,0,0,0,0,0,0,0,0,0,0,0,0,0,0,0,0],"sum_hessian":[9.813E3,8.699E3,1.114E3,6.701E3,1.998E3,9.94E2,1.2E2,4.102E3,2.599E3,1.291E3,7.07E2,6.04E2,3.9E2,5.7E1,6.3E1,1.981E3,2.121E3,1.376E3,1.223E3,1.028E3,2.63E2,3.24E2,3.83E2,3.37E2,2.67E2,2.4E2,1.5E2,7E0,5.6E1],"tree_param":{"num_deleted":"0","num_feature":"17","num_nodes":"29","size_leaf_vector":"1"}},{"base_weights":[1.0480152E-1,-4.665097E0,3.720628E1,-7.4656653E0,5.7401767E0,3.018671E1,7.045744E1,-9.763222E0,-3.9434924E0,2.2904627E0,1.1354335E1,2.4011515E1,3.847416E1,5.54966E1,9.082829E1,-3.3831605E-1,-2.4459194E-1,-1.6197342E-1,-7.357413E-2,9.866516E-2,-4.819736E-2,2.76782E-1,4.2109194E-1,6.3577557E-1,8.705602E-1,1.3525704E0,1.0573887E0,2.0409813E0,1.5740682E0,2.1068714E0,2.9480872E0],"categories":[],"categories_nodes":[],"categories_segments":[],"categories_sizes":[],"default_left":[0,0,0,0,0,0,0,0,0,0,0,0,0,0,0,0,0,0,0,0,0,0,0,0,0,0,0,0,0,0,0],"id":23,"left_children":[1,3,5,7,9,11,13,15,17,19,21,23,25,27,29,-1,-1,-1,-1,-1,-1,-1,-1,-1,-1,-1,-1,-1,-1,-1,-1],"loss_changes":[1.74457E6,2.5458666E5,2.5999125E5,5.5661438E4,3.5861492E4,4.6619312E4,5.4388562E4,1.006125E4,5.8879766E3,4.4757144E3,3.89475E3,6.936625E3,6.840625E3,7.9525E2,5.5146875E3,0E0,0E0,0E0,0E0,0E0,0E0,0E0,0E0,0E0,0E0,0E0,0E0,0E0,0E0,0E0,0E0],"parents":[2147483647,0,0,1,1,2,2,3,3,4,4,5,5,6,6,7,7,8,8,9,9,10,10,11,11,12,12,13,13,14,14],"right_children":[2,4,6,8,10,12,14,16,18,20,22,24,26,28,30,-1,-1,-1,-1,-1,-1,-1,-1,-1,-1,-1,-1,-1,-1,-1,-1],"split_conditions":[7.8748E1,4.3178E1,1.4365334E2,3.0725334E1,5.7370667E1,1.07098E2,1.7985533E2,2.4862E1,3.593E1,8.626535E0,6.7378E1,9.607533E1,1.0359725E1,9.750762E0,1.6165134E2,-3.3831605E-1,-2.4459194E-1,-1.6197342E-1,-7.357413E-2,9.866516E-2,-4.819736E-2,2.76782E-1,4.2109194E-1,6.3577557E-1,8.705602E-1,1.3525704E0,1.0573887E0,2.0409813E0,1.5740682E0,2.1068714E0,2.9480872E0],"split_indices":[2,2,2,2,2,2,2,2,2,15,2,2,15,15,10,0,0,0,0,0,0,0,0,0,0,0,0,0,0,0,0],"split_type":[0,0,0,0,0,0,0,0,0,0,0,0,0,0,0,0,0,0,0,0,0,0,0,0,0,0,0,0,0,0,0],"sum_hessian":[9.856E3,8.734E3,1.122E3,6.882E3,1.852E3,9.28E2,1.94E2,4.164E3,2.718E3,1.148E3,7.04E2,5.34E2,3.94E2,1.14E2,8E1,2.143E3,2.021E3,1.374E3,1.344E3,9.14E2,2.34E2,3.95E2,3.09E2,3.45E2,1.89E2,1.25E2,2.69E2,1.8E1,9.6E1,2.4E1,5.6E1],"tree_param":{"num_deleted":"0","num_feature":"17","num_nodes":"31","size_leaf_vector":"1"}},{"base_weights":[6.8589896E-2,-4.5424724E0,3.5873035E1,-7.539968E0,4.393261E0,3.0042307E1,7.155738E1,-9.908073E0,-4.8347497E0,1.3559774E0,1.0860737E1,2.4539444E1,3.9459805E1,6.1709072E1,2.9374735E0,-3.651134E-1,-2.7184388E-1,-1.7776017E-1,-8.613165E-2,2.4873068E-4,1.2385978E-1,2.554321E-1,4.1458008E-1,6.5891784E-1,9.0344566E-1,1.339645E0,1.0382264E0,2.1032286E0,1.5183742E0],"categories":[],"categories_nodes":[],"categories_segments":[],"categories_sizes":[],"default_left":[0,0,0,0,0,0,0,0,0,0,0,0,0,0,0,0,0,0,0,0,0,0,0,0,0,0,0,0,0],"id":24,"left_children":[1,3,5,7,9,11,13,15,17,19,21,23,25,27,-1,-1,-1,-1,-1,-1,-1,-1,-1,-1,-1,-1,-1,-1,-1],"loss_changes":[1.625043E6,2.3359675E5,2.3150812E5,4.1784906E4,4.3024312E4,4.914475E4,3.4712625E4,6.5570312E3,6.5148203E3,5.575131E3,4.7416406E3,8.1409688E3,7.40325E3,7.3555312E3,0E0,0E0,0E0,0E0,0E0,0E0,0E0,0E0,0E0,0E0,0E0,0E0,0E0,0E0,0E0],"parents":[2147483647,0,0,1,1,2,2,3,3,4,4,5,5,6,6,7,7,8,8,9,9,10,10,11,11,12,12,13,13],"right_children":[2,4,6,8,10,12,14,16,18,20,22,24,26,28,-1,-1,-1,-1,-1,-1,-1,-1,-1,-1,-1,-1,-1,-1,-1],"split_conditions":[7.8748E1,4.0768665E1,1.5083934E2,2.8699333E1,5.7370667E1,1.1149467E2,2.1639867E2,2.1619333E1,3.5594666E1,4.924267E1,6.7378E1,1.0004733E2,1.4183888E1,2.0201E4,2.9374735E0,-3.651134E-1,-2.7184388E-1,-1.7776017E-1,-8.613165E-2,2.4873068E-4,1.2385978E-1,2.554321E-1,4.1458008E-1,6.5891784E-1,9.0344566E-1,1.339645E0,1.0382264E0,2.1032286E0,1.5183742E0],"split_indices":[2,2,2,2,2,2,2,2,2,2,2,2,15,1,0,0,0,0,0,0,0,0,0,0,0,0,0,0,0],"split_type":[0,0,0,0,0,0,0,0,0,0,0,0,0,0,0,0,0,0,0,0,0,0,0,0,0,0,0,0,0],"sum_hessian":[9.841E3,8.719E3,1.122E3,6.529E3,2.19E3,9.66E2,1.56E2,3.48E3,3.049E3,1.491E3,6.99E2,6.12E2,3.54E2,1.16E2,4E1,9.44E2,2.536E3,1.959E3,1.09E3,1.004E3,4.87E2,3.92E2,3.07E2,4.22E2,1.9E2,1.67E2,1.87E2,6.3E1,5.3E1],"tree_param":{"num_deleted":"0","num_feature":"17","num_nodes":"29","size_leaf_vector":"1"}},{"base_weights":[-1.4979339E-2,-4.6050625E0,3.3199707E1,-7.3480105E0,3.9085977E0,2.7668407E1,6.955824E1,-9.685123E0,-4.800905E0,1.1337098E0,9.492479E0,2.1976274E1,3.730559E1,5.358951E1,8.630286E1,-3.5406893E-1,-2.6527315E-1,-1.8573518E-1,-9.90706E-2,8.0720924E-2,-1.668718E-2,2.2687666E-1,3.7760186E-1,5.1956683E-1,7.5966686E-1,1.0095586E0,1.2728941E0,1.796508E0,1.37044E0,2.2361007E0,2.9093719E0],"categories":[],"categories_nodes":[],"categories_segments":[],"categories_sizes":[],"default_left":[0,0,0,0,0,0,0,0,0,0,0,0,0,0,0,0,0,0,0,0,0,0,0,0,0,0,0,0,0,0,0],"id":25,"left_children":[1,3,5,7,9,11,13,15,17,19,21,23,25,27,29,-1,-1,-1,-1,-1,-1,-1,-1,-1,-1,-1,-1,-1,-1,-1,-1],"loss_changes":[1.499274E6,2.0179458E5,2.3820075E5,3.88555E4,3.2620965E4,5.6120875E4,3.7355312E4,5.974125E3,6.4984688E3,3.706268E3,4.079004E3,9.7685625E3,5.7614375E3,1.3957344E3,2.1929375E3,0E0,0E0,0E0,0E0,0E0,0E0,0E0,0E0,0E0,0E0,0E0,0E0,0E0,0E0,0E0,0E0],"parents":[2147483647,0,0,1,1,2,2,3,3,4,4,5,5,6,6,7,7,8,8,9,9,10,10,11,11,12,12,13,13,14,14],"right_children":[2,4,6,8,10,12,14,16,18,20,22,24,26,28,30,-1,-1,-1,-1,-1,-1,-1,-1,-1,-1,-1,-1,-1,-1,-1,-1],"split_conditions":[7.582667E1,4.0768665E1,1.5083934E2,2.8488E1,5.6074E1,1.0929667E2,1.7985533E2,2.1619333E1,3.3804E1,4.4513332E1,6.649467E1,8.7616E1,1.2660133E2,1.6165134E2,2.2620428E2,-3.5406893E-1,-2.6527315E-1,-1.8573518E-1,-9.90706E-2,8.0720924E-2,-1.668718E-2,2.2687666E-1,3.7760186E-1,5.1956683E-1,7.5966686E-1,1.0095586E0,1.2728941E0,1.796508E0,1.37044E0,2.2361007E0,2.9093719E0],"split_indices":[2,2,2,2,2,2,2,2,2,8,2,2,2,7,14,0,0,0,0,0,0,0,0,0,0,0,0,0,0,0,0],"split_type":[0,0,0,0,0,0,0,0,0,0,0,0,0,0,0,0,0,0,0,0,0,0,0,0,0,0,0,0,0,0,0],"sum_hessian":[9.832E3,8.639E3,1.193E3,6.534E3,2.105E3,1.037E3,1.56E2,3.406E3,3.128E3,1.407E3,6.98E2,6.54E2,3.83E2,8.2E1,7.4E1,9.66E2,2.44E3,1.621E3,1.507E3,7.32E2,6.75E2,4.32E2,2.66E2,2.76E2,3.78E2,2.28E2,1.55E2,4.2E1,4E1,3.9E1,3.5E1],"tree_param":{"num_deleted":"0","num_feature":"17","num_nodes":"31","size_leaf_vector":"1"}},{"base_weights":[9.802523E-2,-4.61512E0,3.1233824E1,-7.5589185E0,2.2739282E0,2.4741173E1,6.026339E1,-9.8288965E0,-5.5924063E0,-2.3966439E-1,7.711032E0,1.7949759E1,3.0865133E1,4.9001373E1,8.20246E1,-3.7172428E-1,-2.7765042E-1,-2.0142959E-1,-1.243483E-1,4.0671397E-2,-6.0463034E-2,1.5579624E-1,3.042812E-1,4.4057047E-1,6.2141985E-1,8.2977074E-1,1.049138E0,1.6091362E0,1.2721913E0,2.09956E0,2.7951782E0],"categories":[],"categories_nodes":[],"categories_segments":[],"categories_sizes":[],"default_left":[0,0,0,0,0,0,0,0,0,0,0,0,0,0,0,0,0,0,0,0,0,0,0,0,0,0,0,0,0,0,0],"id":26,"left_children":[1,3,5,7,9,11,13,15,17,19,21,23,25,27,29,-1,-1,-1,-1,-1,-1,-1,-1,-1,-1,-1,-1,-1,-1,-1,-1],"loss_changes":[1.4454606E6,1.7351233E5,2.4258925E5,2.6701875E4,3.5015844E4,4.353175E4,5.3818438E4,3.9740625E3,5.1914766E3,4.969024E3,4.906574E3,4.25225E3,6.352375E3,2.5566875E3,4.082125E3,0E0,0E0,0E0,0E0,0E0,0E0,0E0,0E0,0E0,0E0,0E0,0E0,0E0,0E0,0E0,0E0],"parents":[2147483647,0,0,1,1,2,2,3,3,4,4,5,5,6,6,7,7,8,8,9,9,10,10,11,11,12,12,13,13,14,14],"right_children":[2,4,6,8,10,12,14,16,18,20,22,24,26,28,30,-1,-1,-1,-1,-1,-1,-1,-1,-1,-1,-1,-1,-1,-1,-1,-1],"split_conditions":[7.3112E1,3.8056667E1,1.3636867E2,2.6596E1,5.2427334E1,9.607533E1,1.7985533E2,1.9875334E1,3.2073334E1,4.2580666E1,6.0009335E1,8.2294E1,1.1414667E2,2.0201E4,2.1639867E2,-3.7172428E-1,-2.7765042E-1,-2.0142959E-1,-1.243483E-1,4.0671397E-2,-6.0463034E-2,1.5579624E-1,3.042812E-1,4.4057047E-1,6.2141985E-1,8.2977074E-1,1.049138E0,1.6091362E0,1.2721913E0,2.09956E0,2.7951782E0],"split_indices":[2,2,2,2,2,2,2,2,2,8,2,2,2,1,2,0,0,0,0,0,0,0,0,0,0,0,0,0,0,0,0],"split_type":[0,0,0,0,0,0,0,0,0,0,0,0,0,0,0,0,0,0,0,0,0,0,0,0,0,0,0,0,0,0,0],"sum_hessian":[9.848E3,8.554E3,1.294E3,5.993E3,2.561E3,1.059E3,2.35E2,2.78E3,3.213E3,1.752E3,8.09E2,5.04E2,5.55E2,1.57E2,7.8E1,5.05E2,2.275E3,1.808E3,1.405E3,9.23E2,8.29E2,3.99E2,4.1E2,2.34E2,2.7E2,3.16E2,2.39E2,8.8E1,6.9E1,4.1E1,3.7E1],"tree_param":{"num_deleted":"0","num_feature":"17","num_nodes":"31","size_leaf_vector":"1"}},{"base_weights":[-2.9799229E-2,-4.6888924E0,2.8843046E1,-7.697847E0,9.7547054E-1,2.4301502E1,6.604862E1,-9.773251E0,-5.9658084E0,-9.6350634E-1,6.4358716E0,1.7319054E1,3.3421024E1,1.5437636E0,8.4621704E1,-3.691271E-1,-2.774306E-1,-1.4529279E-1,-2.2195318E-1,-6.584866E-2,3.42921E-2,2.3081598E-1,6.61278E-2,4.2225787E-1,6.3969463E-1,8.598006E-1,1.1438271E0,1.5623746E0,2.7117956E0],"categories":[],"categories_nodes":[],"categories_segments":[],"categories_sizes":[],"default_left":[0,0,0,0,0,0,0,0,0,0,0,0,0,0,0,0,0,0,0,0,0,0,0,0,0,0,0,0,0],"id":27,"left_children":[1,3,5,7,9,11,13,15,17,19,21,23,25,-1,27,-1,-1,-1,-1,-1,-1,-1,-1,-1,-1,-1,-1,-1,-1],"loss_changes":[1.3312232E6,1.4523784E5,2.3072975E5,1.9946062E4,3.131371E4,7.7552375E4,3.602125E4,3.251625E3,4.847375E3,5.665521E3,4.108631E3,8.752828E3,1.0805875E4,0E0,7.3128438E3,0E0,0E0,0E0,0E0,0E0,0E0,0E0,0E0,0E0,0E0,0E0,0E0,0E0,0E0],"parents":[2147483647,0,0,1,1,2,2,3,3,4,4,5,5,6,6,7,7,8,8,9,9,10,10,11,11,12,12,14,14],"right_children":[2,4,6,8,10,12,14,16,18,20,22,24,26,-1,28,-1,-1,-1,-1,-1,-1,-1,-1,-1,-1,-1,-1,-1,-1],"split_conditions":[6.879667E1,3.593E1,1.5083934E2,2.5841333E1,5.1222E1,1.0004733E2,1.6165134E2,1.9536E1,3.835673E0,4.3178E1,1.0568376E1,8.4084E1,1.1690733E2,1.5437636E0,1.7985533E2,-3.691271E-1,-2.774306E-1,-1.4529279E-1,-2.2195318E-1,-6.584866E-2,3.42921E-2,2.3081598E-1,6.61278E-2,4.2225787E-1,6.3969463E-1,8.598006E-1,1.1438271E0,1.5623746E0,2.7117956E0],"split_indices":[2,2,2,2,2,2,10,2,15,2,15,2,2,0,2,0,0,0,0,0,0,0,0,0,0,0,0,0,0],"split_type":[0,0,0,0,0,0,0,0,0,0,0,0,0,0,0,0,0,0,0,0,0,0,0,0,0,0,0,0,0],"sum_hessian":[9.894E3,8.52E3,1.374E3,5.564E3,2.956E3,1.226E3,1.48E2,2.529E3,3.035E3,2.182E3,7.74E2,6.96E2,5.3E2,8.5E1,6.3E1,4.31E2,2.098E3,1.704E3,1.331E3,1.377E3,8.05E2,5.96E2,1.78E2,3.87E2,3.09E2,2.67E2,2.63E2,1.1E1,5.2E1],"tree_param":{"num_deleted":"0","num_feature":"17","num_nodes":"29","size_leaf_vector":"1"}},{"base_weights":[-1.7742828E-1,-4.661528E0,2.5836681E1,-7.196825E0,-2.7380672E-1,2.0764214E1,5.2821022E1,-8.648733E0,-5.5707593E0,-2.2161858E0,3.3711383E0,1.4534473E1,2.7031649E1,4.6480457E1,2.5288744E0,-3.0283782E-1,-2.3947573E-1,-1.177213E-1,-2.0924428E-1,-2.7747182E-2,-1.430577E-1,6.8370715E-2,2.4746288E-1,6.5590537E-1,4.0555984E-1,6.388146E-1,8.9800185E-1,1.0854995E0,1.6508007E0],"categories":[],"categories_nodes":[],"categories_segments":[],"categories_sizes":[],"default_left":[0,0,0,0,0,0,0,0,0,0,0,0,0,0,0,0,0,0,0,0,0,0,0,0,0,0,0,0,0],"id":28,"left_children":[1,3,5,7,9,11,13,15,17,19,21,23,25,27,-1,-1,-1,-1,-1,-1,-1,-1,-1,-1,-1,-1,-1,-1,-1],"loss_changes":[1.1464386E6,9.3251984E4,1.9669075E5,1.2495281E4,2.1749736E4,4.7163312E4,4.1583375E4,2.6213125E3,5.773617E3,6.6005107E3,5.6703574E3,4.268164E3,9.452344E3,1.4905281E4,0E0,0E0,0E0,0E0,0E0,0E0,0E0,0E0,0E0,0E0,0E0,0E0,0E0,0E0,0E0],"parents":[2147483647,0,0,1,1,2,2,3,3,4,4,5,5,6,6,7,7,8,8,9,9,10,10,11,11,12,12,13,13],"right_children":[2,4,6,8,10,12,14,16,18,20,22,24,26,28,-1,-1,-1,-1,-1,-1,-1,-1,-1,-1,-1,-1,-1,-1,-1],"split_conditions":[6.673978E1,3.491089E1,1.34814E2,2.6874E1,4.6446445E1,9.232222E1,2.1742578E2,2.1589111E1,2.9953333E1,4.2580666E1,6.0764E1,4.3E1,9.192133E1,1.2660133E2,2.5288744E0,-3.0283782E-1,-2.3947573E-1,-1.177213E-1,-2.0924428E-1,-2.7747182E-2,-1.430577E-1,6.8370715E-2,2.4746288E-1,6.5590537E-1,4.0555984E-1,6.388146E-1,8.9800185E-1,1.0854995E0,1.6508007E0],"split_indices":[12,12,12,12,12,12,12,12,9,9,12,4,10,10,0,0,0,0,0,0,0,0,0,0,0,0,0,0,0],"split_type":[0,0,0,0,0,0,0,0,0,0,0,0,0,0,0,0,0,0,0,0,0,0,0,0,0,0,0,0,0],"sum_hessian":[9.826E3,8.382E3,1.444E3,5.312E3,3.07E3,1.217E3,2.27E2,2.804E3,2.508E3,2.003E3,1.067E3,6.12E2,6.05E2,1.91E2,3.6E1,8.8E2,1.924E3,1.156E3,1.352E3,1.331E3,6.72E2,8.73E2,1.94E2,7.2E1,5.4E2,2.06E2,3.99E2,8.9E1,1.02E2],"tree_param":{"num_deleted":"0","num_feature":"17","num_nodes":"29","size_leaf_vector":"1"}},{"base_weights":[1.7468128E-2,-4.1984057E0,2.865068E1,-6.808713E0,2.3072927E0,2.251585E1,5.525219E1,-8.612865E0,-4.612274E0,4.1214153E-1,8.224179E0,1.6629454E1,2.8015463E1,4.497958E1,7.4721535E1,-3.2338068E-1,-2.3897094E-1,-1.1368594E-1,-1.8925029E-1,-3.141056E-2,6.876155E-2,1.9559464E-1,3.1574672E-1,6.118417E-1,4.256393E-1,7.716771E-1,1.0144343E0,1.6440768E0,1.2726789E0,1.8861041E0,2.5500352E0],"categories":[],"categories_nodes":[],"categories_segments":[],"categories_sizes":[],"default_left":[0,0,0,0,0,0,0,0,0,0,0,0,0,0,0,0,0,0,0,0,0,0,0,0,0,0,0,0,0,0,0],"id":29,"left_children":[1,3,5,7,9,11,13,15,17,19,21,23,25,27,29,-1,-1,-1,-1,-1,-1,-1,-1,-1,-1,-1,-1,-1,-1,-1,-1],"loss_changes":[1.1879461E6,1.4568623E5,2.0487212E5,2.422E4,2.7547922E4,3.28135E4,4.3839312E4,4.6251406E3,3.831668E3,5.110033E3,2.2684375E3,4.2978594E3,6.1773438E3,1.6185E3,4.4022188E3,0E0,0E0,0E0,0E0,0E0,0E0,0E0,0E0,0E0,0E0,0E0,0E0,0E0,0E0,0E0,0E0],"parents":[2147483647,0,0,1,1,2,2,3,3,4,4,5,5,6,6,7,7,8,8,9,9,10,10,11,11,12,12,13,13,14,14],"right_children":[2,4,6,8,10,12,14,16,18,20,22,24,26,28,30,-1,-1,-1,-1,-1,-1,-1,-1,-1,-1,-1,-1,-1,-1,-1,-1],"split_conditions":[7.3112E1,3.8658E1,1.3636867E2,2.824E1,5.6074E1,9.607533E1,1.7985533E2,2.09E1,3.7076E1,4.512467E1,6.459E1,7.8748E1,1.1945267E2,1.8611E4,2.1639867E2,-3.2338068E-1,-2.3897094E-1,-1.1368594E-1,-1.8925029E-1,-3.141056E-2,6.876155E-2,1.9559464E-1,3.1574672E-1,6.118417E-1,4.256393E-1,7.716771E-1,1.0144343E0,1.6440768E0,1.2726789E0,1.8861041E0,2.5500352E0],"split_indices":[2,2,2,2,2,2,2,2,9,2,2,8,2,0,2,0,0,0,0,0,0,0,0,0,0,0,0,0,0,0,0],"split_type":[0,0,0,0,0,0,0,0,0,0,0,0,0,0,0,0,0,0,0,0,0,0,0,0,0,0,0,0,0,0,0],"sum_hessian":[9.839E3,8.577E3,1.262E3,6.121E3,2.456E3,1.027E3,2.35E2,3.359E3,2.762E3,1.861E3,5.95E2,4.98E2,5.29E2,1.56E2,7.9E1,7.69E2,2.59E3,1.862E3,9E2,1.048E3,8.13E2,3.44E2,2.51E2,1.93E2,3.05E2,3.83E2,1.46E2,2.8E1,1.28E2,4E1,3.9E1],"tree_param":{"num_deleted":"0","num_feature":"17","num_nodes":"31","size_leaf_vector":"1"}},{"base_weights":[1.5486778E-2,-4.1409974E0,2.5847006E1,-6.391381E0,1.4548527E0,2.110453E1,5.4290913E1,-7.9998426E0,-4.5494204E0,-4.7663262E-1,5.7769914E0,1.5440101E1,2.766895E1,4.678279E1,2.4664593E0,-2.880211E-1,-2.2269799E-1,-1.6567913E-1,-8.7766565E-2,6.274206E-2,-4.5500882E-2,1.1653089E-1,2.7886823E-1,5.435304E-1,3.8141444E-1,6.619732E-1,9.157933E-1,1.6843034E0,1.2817178E0],"categories":[],"categories_nodes":[],"categories_segments":[],"categories_sizes":[],"default_left":[0,0,0,0,0,0,0,0,0,0,0,0,0,0,0,0,0,0,0,0,0,0,0,0,0,0,0,0,0],"id":30,"left_children":[1,3,5,7,9,11,13,15,17,19,21,23,25,27,-1,-1,-1,-1,-1,-1,-1,-1,-1,-1,-1,-1,-1,-1,-1],"loss_changes":[1.0604762E6,1.0714892E5,1.8352481E5,1.7941406E4,2.0380584E4,4.3263656E4,3.7037375E4,2.9174531E3,4.4578867E3,4.5116836E3,4.9851035E3,4.3904688E3,8.0204062E3,3.5283438E3,0E0,0E0,0E0,0E0,0E0,0E0,0E0,0E0,0E0,0E0,0E0,0E0,0E0,0E0,0E0],"parents":[2147483647,0,0,1,1,2,2,3,3,4,4,5,5,6,6,7,7,8,8,9,9,10,10,11,11,12,12,13,13],"right_children":[2,4,6,8,10,12,14,16,18,20,22,24,26,28,-1,-1,-1,-1,-1,-1,-1,-1,-1,-1,-1,-1,-1,-1,-1],"split_conditions":[6.889533E1,3.8218E1,1.3564392E2,2.7767334E1,4.74435E1,9.810733E1,2.1742578E2,2.1589111E1,3.4280304E1,5.1E1,6.428503E1,9.226348E0,9.3872E1,1.0742598E1,2.4664593E0,-2.880211E-1,-2.2269799E-1,-1.6567913E-1,-8.7766565E-2,6.274206E-2,-4.5500882E-2,1.1653089E-1,2.7886823E-1,5.435304E-1,3.8141444E-1,6.619732E-1,9.157933E-1,1.6843034E0,1.2817178E0],"split_indices":[12,11,14,11,14,12,12,12,14,4,14,15,10,15,0,0,0,0,0,0,0,0,0,0,0,0,0,0,0],"split_type":[0,0,0,0,0,0,0,0,0,0,0,0,0,0,0,0,0,0,0,0,0,0,0,0,0,0,0,0,0],"sum_hessian":[9.875E3,8.507E3,1.368E3,6.067E3,2.44E3,1.174E3,1.94E2,3.237E3,2.83E3,1.687E3,7.53E2,6.32E2,5.42E2,1.55E2,3.9E1,8.53E2,2.384E3,1.768E3,1.062E3,4.86E2,1.201E3,4.91E2,2.62E2,3.16E2,3.16E2,1.86E2,3.56E2,4.3E1,1.12E2],"tree_param":{"num_deleted":"0","num_feature":"17","num_nodes":"29","size_leaf_vector":"1"}},{"base_weights":[-5.040129E-2,-3.8403478E0,2.7859476E1,-6.445388E0,2.478879E0,2.3790491E1,6.4209755E1,-7.9666114E0,-4.087373E0,-1.1436781E-1,7.225083E0,1.9253618E1,3.331335E1,5.2446396E1,7.54745E1,-2.793562E-1,-2.0869361E-1,-9.116027E-2,-1.8400475E-1,3.2101836E-2,-6.649457E-2,1.5406607E-1,2.9643315E-1,4.737379E-1,6.906971E-1,1.2623239E0,9.00096E-1,1.7995015E0,1.3409077E0,1.379778E0,2.3585768E0],"categories":[],"categories_nodes":[],"categories_segments":[],"categories_sizes":[],"default_left":[0,0,0,0,0,0,0,0,0,0,0,0,0,0,0,0,0,0,0,0,0,0,0,0,0,0,0,0,0,0,0],"id":31,"left_children":[1,3,5,7,9,11,13,15,17,19,21,23,25,27,29,-1,-1,-1,-1,-1,-1,-1,-1,-1,-1,-1,-1,-1,-1,-1,-1],"loss_changes":[1.04222144E6,1.428224E5,1.7270894E5,2.2002812E4,3.1177186E4,4.5198E4,1.1677969E4,5.0080938E3,5.154785E3,4.0831692E3,4.9164023E3,9.046781E3,8.630125E3,8.8178125E2,1.7614062E3,0E0,0E0,0E0,0E0,0E0,0E0,0E0,0E0,0E0,0E0,0E0,0E0,0E0,0E0,0E0,0E0],"parents":[2147483647,0,0,1,1,2,2,3,3,4,4,5,5,6,6,7,7,8,8,9,9,10,10,11,11,12,12,13,13,14,14],"right_children":[2,4,6,8,10,12,14,16,18,20,22,24,26,28,30,-1,-1,-1,-1,-1,-1,-1,-1,-1,-1,-1,-1,-1,-1,-1,-1],"split_conditions":[7.582667E1,3.8658E1,1.6165134E2,2.9391333E1,5.2427334E1,1.1414667E2,1.6165134E2,2.3525333E1,4.927732E0,6.327256E0,6.3418E1,9.3872E1,1.0742598E1,2.013E4,1.3E0,-2.793562E-1,-2.0869361E-1,-9.116027E-2,-1.8400475E-1,3.2101836E-2,-6.649457E-2,1.5406607E-1,2.9643315E-1,4.737379E-1,6.906971E-1,1.2623239E0,9.00096E-1,1.7995015E0,1.3409077E0,1.379778E0,2.3585768E0],"split_indices":[2,2,2,2,2,2,10,2,15,15,2,2,15,1,5,0,0,0,0,0,0,0,0,0,0,0,0,0,0,0,0],"split_type":[0,0,0,0,0,0,0,0,0,0,0,0,0,0,0,0,0,0,0,0,0,0,0,0,0,0,0,0,0,0,0],"sum_hessian":[9.851E3,8.674E3,1.177E3,6.142E3,2.532E3,1.06E3,1.17E2,3.732E3,2.41E3,1.638E3,8.94E2,7.2E2,3.4E2,6E1,5.7E1,1.597E3,2.135E3,1.595E3,8.15E2,1.048E3,5.9E2,5.02E2,3.92E2,3.78E2,3.42E2,9E1,2.5E2,2.7E1,3.3E1,7E0,5E1],"tree_param":{"num_deleted":"0","num_feature":"17","num_nodes":"31","size_leaf_vector":"1"}},{"base_weights":[-1.7245876E-2,-3.5856428E0,2.8111269E1,-5.762812E0,4.2220488E0,2.2006294E1,5.106796E1,-7.528797E0,-3.0702796E0,2.0885036E0,9.008972E0,1.7888828E1,2.8243668E1,4.4318424E1,8.235777E1,-2.6399687E-1,-1.8916345E-1,-5.8064464E-2,-1.4470494E-1,9.383972E-2,-3.7037563E-2,3.7233704E-1,2.080695E-1,6.582688E-1,4.7606215E-1,1.0066044E0,7.2659564E-1,1.0905409E0,1.4537565E0,2.6124165E0,1.4295949E0],"categories":[],"categories_nodes":[],"categories_segments":[],"categories_sizes":[],"default_left":[0,0,0,0,0,0,0,0,0,0,0,0,0,0,0,0,0,0,0,0,0,0,0,0,0,0,0,0,0,0,0],"id":32,"left_children":[1,3,5,7,9,11,13,15,17,19,21,23,25,27,29,-1,-1,-1,-1,-1,-1,-1,-1,-1,-1,-1,-1,-1,-1,-1,-1],"loss_changes":[9.878784E5,1.4849069E5,1.5416244E5,3.2453328E4,1.9437176E4,2.2018E4,4.53465E4,6.3573125E3,5.376369E3,4.5600938E3,4.0546055E3,3.9998281E3,6.60125E3,4.6045312E3,2.4064375E3,0E0,0E0,0E0,0E0,0E0,0E0,0E0,0E0,0E0,0E0,0E0,0E0,0E0,0E0,0E0,0E0],"parents":[2147483647,0,0,1,1,2,2,3,3,4,4,5,5,6,6,7,7,8,8,9,9,10,10,11,11,12,12,13,13,14,14],"right_children":[2,4,6,8,10,12,14,16,18,20,22,24,26,28,30,-1,-1,-1,-1,-1,-1,-1,-1,-1,-1,-1,-1,-1,-1,-1,-1],"split_conditions":[7.8748E1,4.2892666E1,1.3636867E2,3.0725334E1,6.0009335E1,1.07098E2,2.1639867E2,2.4692E1,4.847803E0,8.30176E0,6.5334287E0,7.831586E0,1.1410764E1,1.1414667E2,7.1E1,-2.6399687E-1,-1.8916345E-1,-5.8064464E-2,-1.4470494E-1,9.383972E-2,-3.7037563E-2,3.7233704E-1,2.080695E-1,6.582688E-1,4.7606215E-1,1.0066044E0,7.2659564E-1,1.0905409E0,1.4537565E0,2.6124165E0,1.4295949E0],"split_indices":[2,2,2,2,2,2,2,2,15,15,15,15,15,10,4,0,0,0,0,0,0,0,0,0,0,0,0,0,0,0,0],"split_type":[0,0,0,0,0,0,0,0,0,0,0,0,0,0,0,0,0,0,0,0,0,0,0,0,0,0,0,0,0,0,0],"sum_hessian":[9.84E3,8.733E3,1.107E3,6.829E3,1.904E3,8.76E2,2.31E2,4.123E3,2.706E3,1.318E3,5.86E2,5.3E2,3.46E2,1.92E2,3.9E1,2.019E3,2.104E3,1.644E3,1.062E3,1.004E3,3.14E2,2.2E2,3.66E2,1.73E2,3.57E2,1.46E2,2E2,6.9E1,1.23E2,3.3E1,6E0],"tree_param":{"num_deleted":"0","num_feature":"17","num_nodes":"31","size_leaf_vector":"1"}},{"base_weights":[-1.0362638E-1,-4.040094E0,2.2527752E1,-6.127093E0,6.357439E-2,1.830922E1,5.0017277E1,-7.5786552E0,-4.8439326E0,-1.3234824E0,3.5631726E0,1.3891168E1,2.4783747E1,4.300215E1,7.749997E1,-1.9877328E-1,-2.5068212E-1,-1.6616793E-1,-9.267138E-2,-1.03453495E-1,-1.290558E-2,3.405853E-2,1.5838282E-1,3.3471835E-1,5.030029E-1,5.621056E-1,8.4046435E-1,1.1353623E0,1.5186656E0,1.5132596E0,2.4910207E0],"categories":[],"categories_nodes":[],"categories_segments":[],"categories_sizes":[],"default_left":[0,0,0,0,0,0,0,0,0,0,0,0,0,0,0,0,0,0,0,0,0,0,0,0,0,0,0,0,0,0,0],"id":33,"left_children":[1,3,5,7,9,11,13,15,17,19,21,23,25,27,29,-1,-1,-1,-1,-1,-1,-1,-1,-1,-1,-1,-1,-1,-1,-1,-1],"loss_changes":[8.7484306E5,7.164119E4,1.6781394E5,1.0291344E4,1.3698249E4,3.5783594E4,3.3876688E4,1.8706562E3,3.575961E3,3.8348308E3,3.3316729E3,5.7326875E3,9.461E3,4.214125E3,1.5017344E3,0E0,0E0,0E0,0E0,0E0,0E0,0E0,0E0,0E0,0E0,0E0,0E0,0E0,0E0,0E0,0E0],"parents":[2147483647,0,0,1,1,2,2,3,3,4,4,5,5,6,6,7,7,8,8,9,9,10,10,11,11,12,12,13,13,14,14],"right_children":[2,4,6,8,10,12,14,16,18,20,22,24,26,28,30,-1,-1,-1,-1,-1,-1,-1,-1,-1,-1,-1,-1,-1,-1,-1,-1],"split_conditions":[6.545E1,3.5933334E1,1.3564392E2,2.6147333E1,4.6012695E1,9.810733E1,2.1742578E2,2.3827682E0,3.457567E1,3.3618694E1,4.843889E1,7.912444E1,9.922442E1,1.6067044E2,1.7985533E2,-1.9877328E-1,-2.5068212E-1,-1.6616793E-1,-9.267138E-2,-1.03453495E-1,-1.290558E-2,3.405853E-2,1.5838282E-1,3.3471835E-1,5.030029E-1,5.621056E-1,8.4046435E-1,1.1353623E0,1.5186656E0,1.5132596E0,2.4910207E0],"split_indices":[12,11,14,11,14,12,12,15,14,14,12,12,14,12,11,0,0,0,0,0,0,0,0,0,0,0,0,0,0,0,0],"split_type":[0,0,0,0,0,0,0,0,0,0,0,0,0,0,0,0,0,0,0,0,0,0,0,0,0,0,0,0,0,0,0],"sum_hessian":[9.818E3,8.364E3,1.454E3,5.544E3,2.82E3,1.262E3,1.92E2,2.599E3,2.945E3,2.02E3,8E2,7.52E2,5.1E2,1.55E2,3.7E1,1.172E3,1.427E3,2.108E3,8.37E2,5.97E2,1.423E3,3.32E2,4.68E2,3.88E2,3.64E2,1.8E2,3.3E2,9.6E1,5.9E1,8E0,2.9E1],"tree_param":{"num_deleted":"0","num_feature":"17","num_nodes":"31","size_leaf_vector":"1"}},{"base_weights":[2.2870937E-2,-3.2430055E0,2.7751152E1,-5.447148E0,4.2800145E0,2.3617266E1,6.0190994E1,-7.094483E0,-2.875796E0,1.6808717E0,8.607336E0,1.99128E1,3.280243E1,4.7883663E1,2.1891098E0,-2.4933797E-1,-1.776339E-1,-5.2217014E-2,-1.3254711E-1,1.078402E-1,-3.908935E-5,2.0432824E-1,3.1317046E-1,4.799395E-1,6.6223395E-1,1.1411047E0,8.863852E-1,1.5849613E0,1.2129287E0],"categories":[],"categories_nodes":[],"categories_segments":[],"categories_sizes":[],"default_left":[0,0,0,0,0,0,0,0,0,0,0,0,0,0,0,0,0,0,0,0,0,0,0,0,0,0,0,0,0],"id":34,"left_children":[1,3,5,7,9,11,13,15,17,19,21,23,25,27,-1,-1,-1,-1,-1,-1,-1,-1,-1,-1,-1,-1,-1,-1,-1],"loss_changes":[8.8691606E5,1.4531312E5,1.3697231E5,2.868614E4,2.2322723E4,3.054875E4,1.47503125E4,5.8472656E3,4.6290215E3,3.998436E3,2.3802578E3,5.19825E3,3.3418438E3,1.5042188E2,0E0,0E0,0E0,0E0,0E0,0E0,0E0,0E0,0E0,0E0,0E0,0E0,0E0,0E0,0E0],"parents":[2147483647,0,0,1,1,2,2,3,3,4,4,5,5,6,6,7,7,8,8,9,9,10,10,11,11,12,12,13,13],"right_children":[2,4,6,8,10,12,14,16,18,20,22,24,26,28,-1,-1,-1,-1,-1,-1,-1,-1,-1,-1,-1,-1,-1,-1,-1],"split_conditions":[8.2294E1,4.2580666E1,1.6165134E2,3.0725334E1,5.7370667E1,1.1945267E2,1.6165134E2,2.4692E1,3.7050667E1,4.4513332E1,6.7378E1,9.3872E1,1.2660133E2,1.6165134E2,2.1891098E0,-2.4933797E-1,-1.776339E-1,-5.2217014E-2,-1.3254711E-1,1.078402E-1,-3.908935E-5,2.0432824E-1,3.1317046E-1,4.799395E-1,6.6223395E-1,1.1411047E0,8.863852E-1,1.5849613E0,1.2129287E0],"split_indices":[2,2,2,2,2,2,10,2,8,8,2,2,7,8,0,0,0,0,0,0,0,0,0,0,0,0,0,0,0],"split_type":[0,0,0,0,0,0,0,0,0,0,0,0,0,0,0,0,0,0,0,0,0,0,0,0,0,0,0,0,0],"sum_hessian":[9.792E3,8.761E3,1.031E3,6.776E3,1.985E3,9.16E2,1.15E2,4.129E3,2.647E3,1.241E3,7.44E2,6.55E2,2.61E2,6.1E1,5.4E1,2.024E3,2.105E3,1.526E3,1.121E3,5.8E2,6.61E2,3.78E2,3.66E2,2.36E2,4.19E2,9.6E1,1.65E2,3.3E1,2.8E1],"tree_param":{"num_deleted":"0","num_feature":"17","num_nodes":"29","size_leaf_vector":"1"}},{"base_weights":[8.634795E-2,-3.3943286E0,2.4982544E1,-5.4685497E0,2.98612E0,1.9449802E1,4.7682697E1,-7.1238327E0,-3.3344767E0,1.1447923E0,7.502812E0,1.4856573E1,2.459866E1,3.854571E1,6.593105E1,-2.8579414E-1,-1.9895315E-1,-7.101964E-2,-1.5551975E-1,5.9771318E-2,-7.0564196E-2,2.5405437E-1,2.384559E-2,5.9505737E-1,3.940017E-1,8.9275354E-1,6.2315404E-1,1.3871306E0,1.0686234E0,1.6566364E0,2.241746E0],"categories":[],"categories_nodes":[],"categories_segments":[],"categories_sizes":[],"default_left":[0,0,0,0,0,0,0,0,0,0,0,0,0,0,0,0,0,0,0,0,0,0,0,0,0,0,0,0,0,0,0],"id":35,"left_children":[1,3,5,7,9,11,13,15,17,19,21,23,25,27,29,-1,-1,-1,-1,-1,-1,-1,-1,-1,-1,-1,-1,-1,-1,-1,-1],"loss_changes":[8.6048825E5,1.1531498E5,1.5204612E5,2.320239E4,1.7772537E4,2.2835094E4,3.7141625E4,4.3135E3,5.1286445E3,4.509886E3,4.0029375E3,4.2092344E3,8.484719E3,1.9752344E3,3.219625E3,0E0,0E0,0E0,0E0,0E0,0E0,0E0,0E0,0E0,0E0,0E0,0E0,0E0,0E0,0E0,0E0],"parents":[2147483647,0,0,1,1,2,2,3,3,4,4,5,5,6,6,7,7,8,8,9,9,10,10,11,11,12,12,13,13,14,14],"right_children":[2,4,6,8,10,12,14,16,18,20,22,24,26,28,30,-1,-1,-1,-1,-1,-1,-1,-1,-1,-1,-1,-1,-1,-1,-1,-1],"split_conditions":[7.582667E1,4.0768665E1,1.3636867E2,2.9259333E1,5.7370667E1,1.0004733E2,1.7985533E2,2.035E1,4.998485E0,8.416679E0,1.3441038E1,7.582667E1,1.1686875E1,1.9021E4,2.1639867E2,-2.8579414E-1,-1.9895315E-1,-7.101964E-2,-1.5551975E-1,5.9771318E-2,-7.0564196E-2,2.5405437E-1,2.384559E-2,5.9505737E-1,3.940017E-1,8.9275354E-1,6.2315404E-1,1.3871306E0,1.0686234E0,1.6566364E0,2.241746E0],"split_indices":[2,2,2,2,2,2,2,2,15,15,15,8,15,0,2,0,0,0,0,0,0,0,0,0,0,0,0,0,0,0,0],"split_type":[0,0,0,0,0,0,0,0,0,0,0,0,0,0,0,0,0,0,0,0,0,0,0,0,0,0,0,0,0,0,0],"sum_hessian":[9.928E3,8.711E3,1.217E3,6.574E3,2.137E3,9.8E2,2.37E2,3.701E3,2.873E3,1.519E3,6.18E2,5.2E2,4.6E2,1.6E2,7.7E1,6.26E2,3.075E3,1.888E3,9.85E2,1.223E3,2.96E2,5.4E2,7.8E1,1.31E2,3.89E2,1.93E2,2.67E2,4E1,1.2E2,3.8E1,3.9E1],"tree_param":{"num_deleted":"0","num_feature":"17","num_nodes":"31","size_leaf_vector":"1"}},{"base_weights":[7.392013E-2,-3.3384233E0,2.3354588E1,-5.9159036E0,1.3383521E0,1.8908165E1,4.773536E1,-7.456427E0,-4.5452356E0,-5.3403515E-1,5.8185577E0,1.3831807E1,2.4657398E1,3.8523182E1,6.1838367E1,-2.9328352E-1,-2.1045175E-1,-9.951378E-2,-1.736369E-1,1.0666059E-2,-9.3355864E-2,2.0486689E-1,6.850735E-2,5.070069E-1,3.3158624E-1,1.0186217E0,6.768492E-1,1.4490978E0,1.075043E0,1.4584956E0,2.035856E0],"categories":[],"categories_nodes":[],"categories_segments":[],"categories_sizes":[],"default_left":[0,0,0,0,0,0,0,0,0,0,0,0,0,0,0,0,0,0,0,0,0,0,0,0,0,0,0,0,0,0,0],"id":36,"left_children":[1,3,5,7,9,11,13,15,17,19,21,23,25,27,29,-1,-1,-1,-1,-1,-1,-1,-1,-1,-1,-1,-1,-1,-1,-1,-1],"loss_changes":[7.8424625E5,1.0379541E5,1.3590731E5,1.16873125E4,2.5672469E4,3.0857844E4,2.2822156E4,2.6056719E3,4.4676055E3,4.9520356E3,3.2059219E3,4.6735625E3,8.975719E3,1.4242188E3,2.6739062E3,0E0,0E0,0E0,0E0,0E0,0E0,0E0,0E0,0E0,0E0,0E0,0E0,0E0,0E0,0E0,0E0],"parents":[2147483647,0,0,1,1,2,2,3,3,4,4,5,5,6,6,7,7,8,8,9,9,10,10,11,11,12,12,13,13,14,14],"right_children":[2,4,6,8,10,12,14,16,18,20,22,24,26,28,30,-1,-1,-1,-1,-1,-1,-1,-1,-1,-1,-1,-1,-1,-1,-1,-1],"split_conditions":[7.3112E1,3.593E1,1.4365334E2,2.6161333E1,5.1222E1,1.0004733E2,1.7985533E2,1.9536E1,3.5372667E0,6.8786635E0,1.0742598E1,9.089496E0,1.8125E4,1.0900186E1,1.6165134E2,-2.9328352E-1,-2.1045175E-1,-9.951378E-2,-1.736369E-1,1.0666059E-2,-9.3355864E-2,2.0486689E-1,6.850735E-2,5.070069E-1,3.3158624E-1,1.0186217E0,6.768492E-1,1.4490978E0,1.075043E0,1.4584956E0,2.035856E0],"split_indices":[2,2,2,2,2,2,2,2,15,15,15,15,0,15,10,0,0,0,0,0,0,0,0,0,0,0,0,0,0,0,0],"split_type":[0,0,0,0,0,0,0,0,0,0,0,0,0,0,0,0,0,0,0,0,0,0,0,0,0,0,0,0,0,0,0],"sum_hessian":[9.87E3,8.609E3,1.261E3,5.55E3,3.059E3,1.068E3,1.93E2,2.611E3,2.939E3,2.158E3,9.01E2,5.69E2,4.99E2,1.19E2,7.4E1,4.14E2,2.197E3,1.48E3,1.459E3,1.605E3,5.53E2,7E2,2.01E2,2.68E2,3.01E2,8.9E1,4.1E2,2.2E1,9.7E1,2.6E1,4.8E1],"tree_param":{"num_deleted":"0","num_feature":"17","num_nodes":"31","size_leaf_vector":"1"}},{"base_weights":[4.65864E-2,-3.0998762E0,2.4550816E1,-4.891589E0,3.9663732E0,2.0337976E1,5.0899445E1,-6.4332237E0,-2.4461386E0,1.7415785E0,7.4396877E0,1.631975E1,2.7493649E1,4.3385117E1,7.055149E1,-2.3393436E-1,-1.6550703E-1,-4.515557E-2,-1.3064694E-1,8.618643E-2,-5.889837E-2,2.522584E-1,5.5083584E-2,4.1004685E-1,5.881152E-1,1.0201685E0,7.370008E-1,1.7823561E0,1.1928368E0,1.6617742E0,2.369433E0],"categories":[],"categories_nodes":[],"categories_segments":[],"categories_sizes":[],"default_left":[0,0,0,0,0,0,0,0,0,0,0,0,0,0,0,0,0,0,0,0,0,0,0,0,0,0,0,0,0,0,0],"id":37,"left_children":[1,3,5,7,9,11,13,15,17,19,21,23,25,27,29,-1,-1,-1,-1,-1,-1,-1,-1,-1,-1,-1,-1,-1,-1,-1,-1],"loss_changes":[7.6022125E5,1.1064849E5,1.23509625E5,2.6264875E4,1.3649111E4,2.7413094E4,1.9680594E4,5.302453E3,4.8374004E3,4.5280693E3,3.730871E3,5.1570312E3,5.7785E3,4.25875E3,8.642031E2,0E0,0E0,0E0,0E0,0E0,0E0,0E0,0E0,0E0,0E0,0E0,0E0,0E0,0E0,0E0,0E0],"parents":[2147483647,0,0,1,1,2,2,3,3,4,4,5,5,6,6,7,7,8,8,9,9,10,10,11,11,12,12,13,13,14,14],"right_children":[2,4,6,8,10,12,14,16,18,20,22,24,26,28,30,-1,-1,-1,-1,-1,-1,-1,-1,-1,-1,-1,-1,-1,-1,-1,-1],"split_conditions":[7.8748E1,4.376E1,1.5083934E2,3.1028E1,5.7370667E1,1.1149467E2,2.1639867E2,2.3746666E1,5.4713683E0,8.523821E0,1.3441038E1,9.607533E1,1.9226E4,1.1908657E1,2.1639867E2,-2.3393436E-1,-1.6550703E-1,-4.515557E-2,-1.3064694E-1,8.618643E-2,-5.889837E-2,2.522584E-1,5.5083584E-2,4.1004685E-1,5.881152E-1,1.0201685E0,7.370008E-1,1.7823561E0,1.1928368E0,1.6617742E0,2.369433E0],"split_indices":[2,2,2,2,2,2,2,2,15,15,15,2,0,15,11,0,0,0,0,0,0,0,0,0,0,0,0,0,0,0,0],"split_type":[0,0,0,0,0,0,0,0,0,0,0,0,0,0,0,0,0,0,0,0,0,0,0,0,0,0,0,0,0,0,0],"sum_hessian":[9.858E3,8.737E3,1.121E3,6.97E3,1.767E3,9.68E2,1.53E2,4.274E3,2.696E3,1.078E3,6.89E2,6.22E2,3.46E2,1.13E2,4E1,1.714E3,2.56E3,1.807E3,8.89E2,8.26E2,2.52E2,5.87E2,1.02E2,3.47E2,2.75E2,1.04E2,2.42E2,1.8E1,9.5E1,1.7E1,2.3E1],"tree_param":{"num_deleted":"0","num_feature":"17","num_nodes":"31","size_leaf_vector":"1"}},{"base_weights":[-2.9789621E-3,-3.4403427E0,1.898675E1,-5.2736773E0,1.4379899E-1,1.5388798E1,3.904609E1,-6.5611935E0,-4.1179223E0,-1.0770663E0,3.4252846E0,1.0679359E1,1.9769587E1,3.2215935E1,5.291714E1,-2.5085503E-1,-1.8793745E-1,-1.4859432E-1,-9.140457E-2,3.7228923E-2,-6.1818086E-2,1.705401E-1,4.7393013E-2,3.413302E-1,6.929E-2,5.4725826E-1,7.9590476E-1,4.963977E-1,1.0022042E0,5.963603E-1,1.6821667E0],"categories":[],"categories_nodes":[],"categories_segments":[],"categories_sizes":[],"default_left":[0,0,0,0,0,0,0,0,0,0,0,0,0,0,0,0,0,0,0,0,0,0,0,0,0,0,0,0,0,0,0],"id":38,"left_children":[1,3,5,7,9,11,13,15,17,19,21,23,25,27,29,-1,-1,-1,-1,-1,-1,-1,-1,-1,-1,-1,-1,-1,-1,-1,-1],"loss_changes":[6.4308544E5,5.4815453E4,1.0837975E5,8.1855625E3,1.1317345E4,2.6237844E4,1.9990969E4,1.3410547E3,2.5891133E3,4.6968047E3,3.185037E3,3.5974219E3,6.3633594E3,2.3582188E3,6.5990625E3,0E0,0E0,0E0,0E0,0E0,0E0,0E0,0E0,0E0,0E0,0E0,0E0,0E0,0E0,0E0,0E0],"parents":[2147483647,0,0,1,1,2,2,3,3,4,4,5,5,6,6,7,7,8,8,9,9,10,10,11,11,12,12,13,13,14,14],"right_children":[2,4,6,8,10,12,14,16,18,20,22,24,26,28,30,-1,-1,-1,-1,-1,-1,-1,-1,-1,-1,-1,-1,-1,-1,-1,-1],"split_conditions":[6.545E1,3.5933334E1,1.2983965E2,2.6147333E1,4.6318474E1,9.005666E1,1.5735678E2,1.9590221E1,3.1818167E1,5.1E1,6.6E1,9.192133E1,1.2546445E2,4E0,2.4110495E1,-2.5085503E-1,-1.8793745E-1,-1.4859432E-1,-9.140457E-2,3.7228923E-2,-6.1818086E-2,1.705401E-1,4.7393013E-2,3.413302E-1,6.929E-2,5.4725826E-1,7.9590476E-1,4.963977E-1,1.0022042E0,5.963603E-1,1.6821667E0],"split_indices":[12,11,14,11,14,12,14,12,14,4,4,8,12,5,16,0,0,0,0,0,0,0,0,0,0,0,0,0,0,0,0],"split_type":[0,0,0,0,0,0,0,0,0,0,0,0,0,0,0,0,0,0,0,0,0,0,0,0,0,0,0,0,0,0,0],"sum_hessian":[9.85E3,8.341E3,1.509E3,5.518E3,2.823E3,1.281E3,2.28E2,2.608E3,2.91E3,2.058E3,7.65E2,6.19E2,6.62E2,1.55E2,7.3E1,3.65E2,2.243E3,1.633E3,1.277E3,6.13E2,1.445E3,3.43E2,4.22E2,5.71E2,4.8E1,5.43E2,1.19E2,1.2E1,1.43E2,7E0,6.6E1],"tree_param":{"num_deleted":"0","num_feature":"17","num_nodes":"31","size_leaf_vector":"1"}},{"base_weights":[4.455374E-2,-2.9620981E0,2.241234E1,-5.2290354E0,1.8493273E0,1.9118402E1,5.1779385E1,-6.901072E0,-3.9741936E0,-1.19239934E-1,5.763105E0,1.553696E1,2.7475044E1,4.4214283E1,6.405566E1,-1.779323E-1,-2.349654E-1,-8.853904E-2,-1.5520567E-1,3.9335344E-2,-5.54191E-2,1.2028297E-1,2.3307155E-1,3.7432733E-1,5.606902E-1,1.0869036E0,7.157297E-1,1.489526E0,1.0974734E0,2.3433459E0,1.6271404E0],"categories":[],"categories_nodes":[],"categories_segments":[],"categories_sizes":[],"default_left":[0,0,0,0,0,0,0,0,0,0,0,0,0,0,0,0,0,0,0,0,0,0,0,0,0,0,0,0,0,0,0],"id":39,"left_children":[1,3,5,7,9,11,13,15,17,19,21,23,25,27,29,-1,-1,-1,-1,-1,-1,-1,-1,-1,-1,-1,-1,-1,-1,-1,-1],"loss_changes":[6.5611106E5,9.381157E4,1.1083369E5,1.2238328E4,2.1226684E4,3.0729031E4,7.9409062E3,2.2159844E3,4.0846406E3,4.535801E3,3.2122344E3,6.8175625E3,8.985156E3,1.2954844E3,1.5591875E3,0E0,0E0,0E0,0E0,0E0,0E0,0E0,0E0,0E0,0E0,0E0,0E0,0E0,0E0,0E0,0E0],"parents":[2147483647,0,0,1,1,2,2,3,3,4,4,5,5,6,6,7,7,8,8,9,9,10,10,11,11,12,12,13,13,14,14],"right_children":[2,4,6,8,10,12,14,16,18,20,22,24,26,28,30,-1,-1,-1,-1,-1,-1,-1,-1,-1,-1,-1,-1,-1,-1,-1,-1],"split_conditions":[7.71E1,3.7629333E1,1.6165134E2,2.596E1,5.2427334E1,1.1690733E2,2.1639867E2,2.4682994E0,3.8695953E0,4.2580666E1,6.3418E1,9.607533E1,1.0742598E1,1.998E4,2.1639867E2,-1.779323E-1,-2.349654E-1,-8.853904E-2,-1.5520567E-1,3.9335344E-2,-5.54191E-2,1.2028297E-1,2.3307155E-1,3.7432733E-1,5.606902E-1,1.0869036E0,7.157297E-1,1.489526E0,1.0974734E0,2.3433459E0,1.6271404E0],"split_indices":[2,2,2,2,2,2,2,15,15,8,2,2,15,1,9,0,0,0,0,0,0,0,0,0,0,0,0,0,0,0,0],"split_type":[0,0,0,0,0,0,0,0,0,0,0,0,0,0,0,0,0,0,0,0,0,0,0,0,0,0,0,0,0,0,0],"sum_hessian":[9.754E3,8.599E3,1.155E3,5.845E3,2.754E3,1.04E3,1.15E2,2.504E3,3.341E3,1.833E3,9.21E2,7.3E2,3.1E2,7.4E1,4.1E1,1.23E3,1.274E3,1.805E3,1.536E3,1.003E3,8.3E2,4.93E2,4.28E2,3.73E2,3.57E2,8.8E1,2.22E2,4E1,3.4E1,1.4E1,2.7E1],"tree_param":{"num_deleted":"0","num_feature":"17","num_nodes":"31","size_leaf_vector":"1"}},{"base_weights":[1.0332796E-1,-2.8104582E0,2.2398813E1,-4.731483E0,2.9363258E0,1.890792E1,5.0593597E1,-5.981967E0,-2.5515075E0,9.410345E-1,6.433183E0,1.5267447E1,2.6887175E1,4.319121E1,6.32391E1,-2.129971E-1,-1.5214658E-1,-3.9161038E-2,-1.2518626E-1,7.918213E-2,-2.6083143E-2,2.815748E-1,1.4983311E-1,4.9941918E-1,2.8268045E-1,1.0482049E0,7.135837E-1,1.473261E0,1.0622281E0,1.372192E0,2.1481552E0],"categories":[],"categories_nodes":[],"categories_segments":[],"categories_sizes":[],"default_left":[0,0,0,0,0,0,0,0,0,0,0,0,0,0,0,0,0,0,0,0,0,0,0,0,0,0,0,0,0,0,0],"id":40,"left_children":[1,3,5,7,9,11,13,15,17,19,21,23,25,27,29,-1,-1,-1,-1,-1,-1,-1,-1,-1,-1,-1,-1,-1,-1,-1,-1],"loss_changes":[6.407406E5,9.6313336E4,1.1124781E5,1.7807453E4,1.5246213E4,2.9102562E4,8.9695E3,4.191875E3,4.813329E3,4.2855645E3,3.3261172E3,5.4885938E3,7.0852656E3,2.0380469E3,3.1664375E3,0E0,0E0,0E0,0E0,0E0,0E0,0E0,0E0,0E0,0E0,0E0,0E0,0E0,0E0,0E0,0E0],"parents":[2147483647,0,0,1,1,2,2,3,3,4,4,5,5,6,6,7,7,8,8,9,9,10,10,11,11,12,12,13,13,14,14],"right_children":[2,4,6,8,10,12,14,16,18,20,22,24,26,28,30,-1,-1,-1,-1,-1,-1,-1,-1,-1,-1,-1,-1,-1,-1,-1,-1],"split_conditions":[7.8748E1,4.0992E1,1.6165134E2,3.0725334E1,5.6074E1,1.1690733E2,2.1639867E2,2.4172667E1,3.6429333E1,4.4513332E1,5.702034E0,1.6493557E1,1.0742598E1,2.337206E1,2.1639867E2,-2.129971E-1,-1.5214658E-1,-3.9161038E-2,-1.2518626E-1,7.918213E-2,-2.6083143E-2,2.815748E-1,1.4983311E-1,4.9941918E-1,2.8268045E-1,1.0482049E0,7.135837E-1,1.473261E0,1.0622281E0,1.372192E0,2.1481552E0],"split_indices":[2,2,2,2,2,2,2,2,8,8,15,15,15,15,11,0,0,0,0,0,0,0,0,0,0,0,0,0,0,0,0],"split_type":[0,0,0,0,0,0,0,0,0,0,0,0,0,0,0,0,0,0,0,0,0,0,0,0,0,0,0,0,0,0,0],"sum_hessian":[9.861E3,8.722E3,1.139E3,6.537E3,2.185E3,1.015E3,1.24E2,4.153E3,2.384E3,1.392E3,7.93E2,6.99E2,3.16E2,8.1E1,4.3E1,1.861E3,2.292E3,1.349E3,1.035E3,7.18E2,6.74E2,2.58E2,5.35E2,5.64E2,1.35E2,8.5E1,2.31E2,4.3E1,3.8E1,1.6E1,2.7E1],"tree_param":{"num_deleted":"0","num_feature":"17","num_nodes":"31","size_leaf_vector":"1"}},{"base_weights":[-1.3641689E-2,-2.8107717E0,2.0388275E1,-4.7351665E0,2.189038E0,1.5314217E1,3.7313812E1,-6.441633E0,-3.5014448E0,1.7701711E-1,5.6984415E0,1.2051875E1,1.9291628E1,3.0698162E1,5.384089E1,-1.6409649E-1,-2.2029044E-1,-8.354871E-2,-1.5246622E-1,3.679084E-2,-7.122383E-2,2.5680947E-1,1.289675E-1,3.5040295E-1,1.0134437E0,7.044975E-1,4.6250227E-1,1.1773287E0,8.485861E-1,6.7123324E-1,1.671459E0],"categories":[],"categories_nodes":[],"categories_segments":[],"categories_sizes":[],"default_left":[0,0,0,0,0,0,0,0,0,0,0,0,0,0,0,0,0,0,0,0,0,0,0,0,0,0,0,0,0,0,0],"id":41,"left_children":[1,3,5,7,9,11,13,15,17,19,21,23,25,27,29,-1,-1,-1,-1,-1,-1,-1,-1,-1,-1,-1,-1,-1,-1,-1,-1],"loss_changes":[5.6370625E5,8.359329E4,1.0171303E5,1.3184016E4,1.705129E4,1.1679172E4,2.8305625E4,2.2643828E3,4.1118984E3,4.114828E3,3.487832E3,3.7012578E3,6.329703E3,2.9712812E3,3.2949375E3,0E0,0E0,0E0,0E0,0E0,0E0,0E0,0E0,0E0,0E0,0E0,0E0,0E0,0E0,0E0,0E0],"parents":[2147483647,0,0,1,1,2,2,3,3,4,4,5,5,6,6,7,7,8,8,9,9,10,10,11,11,12,12,13,13,14,14],"right_children":[2,4,6,8,10,12,14,16,18,20,22,24,26,28,30,-1,-1,-1,-1,-1,-1,-1,-1,-1,-1,-1,-1,-1,-1,-1,-1],"split_conditions":[7.582667E1,3.922E1,1.30826E2,2.6161333E1,5.2427334E1,1.0004733E2,1.7985533E2,2.3827682E0,4.927732E0,6.8786635E0,5.64461E0,3.5E1,1.3164237E1,1.8886E4,1.3E0,-1.6409649E-1,-2.2029044E-1,-8.354871E-2,-1.5246622E-1,3.679084E-2,-7.122383E-2,2.5680947E-1,1.289675E-1,3.5040295E-1,1.0134437E0,7.044975E-1,4.6250227E-1,1.1773287E0,8.485861E-1,6.7123324E-1,1.671459E0],"split_indices":[2,2,2,2,2,2,2,15,15,15,15,3,15,0,5,0,0,0,0,0,0,0,0,0,0,0,0,0,0,0,0],"split_type":[0,0,0,0,0,0,0,0,0,0,0,0,0,0,0,0,0,0,0,0,0,0,0,0,0,0,0,0,0,0,0],"sum_hessian":[9.876E3,8.686E3,1.19E3,6.272E3,2.414E3,9.17E2,2.73E2,2.63E3,3.642E3,1.535E3,8.79E2,5.06E2,4.11E2,1.97E2,7.6E1,1.269E3,1.361E3,2.508E3,1.134E3,1.088E3,4.47E2,2.87E2,5.92E2,4.99E2,7E0,1.95E2,2.16E2,4E1,1.57E2,5E0,7.1E1],"tree_param":{"num_deleted":"0","num_feature":"17","num_nodes":"31","size_leaf_vector":"1"}},{"base_weights":[8.7180585E-2,-2.916479E0,1.8212206E1,-4.5310206E0,9.080228E-1,1.4874551E1,3.8130394E1,-5.4562244E0,-3.022124E0,-4.3921304E-1,4.171805E0,1.0897698E1,1.8787165E1,3.276272E1,5.8782032E1,-1.7208326E-1,-1.0547876E-1,-3.457808E-2,-1.18275635E-1,-1.9358104E-2,2.5528488E-1,2.5887638E-1,8.362003E-2,6.102079E-1,2.7871072E-1,4.5290324E-1,6.450952E-1,8.589539E-1,1.1205072E0,2.2736154E0,1.4636227E0],"categories":[],"categories_nodes":[],"categories_segments":[],"categories_sizes":[],"default_left":[0,0,0,0,0,0,0,0,0,0,0,0,0,0,0,0,0,0,0,0,0,0,0,0,0,0,0,0,0,0,0],"id":42,"left_children":[1,3,5,7,9,11,13,15,17,19,21,23,25,27,29,-1,-1,-1,-1,-1,-1,-1,-1,-1,-1,-1,-1,-1,-1,-1,-1],"loss_changes":[5.353755E5,5.2094867E4,9.2372E4,8.2648125E3,1.1016527E4,1.8451562E4,2.0244406E4,1.9760703E3,3.879084E3,3.2766497E3,4.4932305E3,8.871945E3,5.719328E3,1.9816719E3,3.1009219E3,0E0,0E0,0E0,0E0,0E0,0E0,0E0,0E0,0E0,0E0,0E0,0E0,0E0,0E0,0E0,0E0],"parents":[2147483647,0,0,1,1,2,2,3,3,4,4,5,5,6,6,7,7,8,8,9,9,10,10,11,11,12,12,13,13,14,14],"right_children":[2,4,6,8,10,12,14,16,18,20,22,24,26,28,30,-1,-1,-1,-1,-1,-1,-1,-1,-1,-1,-1,-1,-1,-1,-1,-1],"split_conditions":[6.889533E1,3.706789E1,1.3564392E2,2.9800667E1,5.1222E1,9.295131E1,2.2620428E2,2.31E1,5.1E1,3.1E1,5.2E1,4.3E1,1.04671776E2,2.7167856E1,2.1639867E2,-1.7208326E-1,-1.0547876E-1,-3.457808E-2,-1.18275635E-1,-1.9358104E-2,2.5528488E-1,2.5887638E-1,8.362003E-2,6.102079E-1,2.7871072E-1,4.5290324E-1,6.450952E-1,8.589539E-1,1.1205072E0,2.2736154E0,1.4636227E0],"split_indices":[12,14,14,11,11,14,14,3,4,3,4,4,12,16,9,0,0,0,0,0,0,0,0,0,0,0,0,0,0,0,0],"split_type":[0,0,0,0,0,0,0,0,0,0,0,0,0,0,0,0,0,0,0,0,0,0,0,0,0,0,0,0,0,0,0],"sum_hessian":[9.832E3,8.435E3,1.397E3,5.931E3,2.504E3,1.198E3,1.99E2,3.675E3,2.256E3,1.773E3,7.31E2,5.96E2,6.02E2,1.6E2,3.9E1,3.21E3,4.65E2,7.45E2,1.511E3,1.734E3,3.9E1,1.72E2,5.59E2,8.5E1,5.11E2,2.58E2,3.44E2,8.8E1,7.2E1,1.2E1,2.7E1],"tree_param":{"num_deleted":"0","num_feature":"17","num_nodes":"31","size_leaf_vector":"1"}},{"base_weights":[4.5437E-2,-2.5996046E0,2.0290764E1,-4.1632175E0,3.2717547E0,1.5764988E1,3.7540813E1,-5.426317E0,-2.078157E0,1.7070881E0,6.6774373E0,1.2631355E1,2.0666035E1,3.3177074E1,5.9405106E1,-2.0792122E-1,-1.4460395E-1,-2.8876446E-2,-1.1014293E-1,7.954076E-2,-4.4906292E-2,2.9832283E-1,1.5143868E-1,4.1456908E-1,1.717653E-1,7.665315E-1,5.1310545E-1,8.72854E-1,1.1629323E0,1.8913511E0,8.8453835E-1],"categories":[],"categories_nodes":[],"categories_segments":[],"categories_sizes":[],"default_left":[0,0,0,0,0,0,0,0,0,0,0,0,0,0,0,0,0,0,0,0,0,0,0,0,0,0,0,0,0,0,0],"id":43,"left_children":[1,3,5,7,9,11,13,15,17,19,21,23,25,27,29,-1,-1,-1,-1,-1,-1,-1,-1,-1,-1,-1,-1,-1,-1,-1,-1],"loss_changes":[5.2783894E5,8.00495E4,8.832972E4,1.8121336E4,9.761541E3,1.3622672E4,2.0545906E4,3.8760781E3,4.6161123E3,3.8099333E3,3.0211465E3,4.464492E3,5.671422E3,3.4107656E3,2.2796562E3,0E0,0E0,0E0,0E0,0E0,0E0,0E0,0E0,0E0,0E0,0E0,0E0,0E0,0E0,0E0,0E0],"parents":[2147483647,0,0,1,1,2,2,3,3,4,4,5,5,6,6,7,7,8,8,9,9,10,10,11,11,12,12,13,13,14,14],"right_children":[2,4,6,8,10,12,14,16,18,20,22,24,26,28,30,-1,-1,-1,-1,-1,-1,-1,-1,-1,-1,-1,-1,-1,-1,-1,-1],"split_conditions":[7.8748E1,4.3178E1,1.3636867E2,3.1028E1,6.0009335E1,1.07098E2,2.1639867E2,2.2410667E1,3.7636665E1,8.626535E0,5.64461E0,1.6493557E1,1.1410764E1,1.6165134E2,-6.8E0,-2.0792122E-1,-1.4460395E-1,-2.8876446E-2,-1.1014293E-1,7.954076E-2,-4.4906292E-2,2.9832283E-1,1.5143868E-1,4.1456908E-1,1.717653E-1,7.665315E-1,5.1310545E-1,8.72854E-1,1.1629323E0,1.8913511E0,8.8453835E-1],"split_indices":[2,2,2,2,2,2,2,2,9,15,15,15,15,2,3,0,0,0,0,0,0,0,0,0,0,0,0,0,0,0,0],"split_type":[0,0,0,0,0,0,0,0,0,0,0,0,0,0,0,0,0,0,0,0,0,0,0,0,0,0,0,0,0,0,0],"sum_hessian":[9.855E3,8.717E3,1.138E3,6.884E3,1.833E3,9.03E2,2.35E2,4.286E3,2.598E3,1.257E3,5.76E2,5.53E2,3.5E2,1.98E2,3.7E1,1.228E3,3.058E3,1.529E3,1.069E3,9.71E2,2.86E2,1.9E2,3.86E2,4.71E2,8.2E1,1.45E2,2.05E2,1.18E2,8E1,3.2E1,5E0],"tree_param":{"num_deleted":"0","num_feature":"17","num_nodes":"31","size_leaf_vector":"1"}},{"base_weights":[3.624251E-2,-2.9224484E0,1.5738442E1,-4.40497E0,-3.2768187E-1,1.3625782E1,4.2029232E1,-5.519258E0,-3.6351993E0,-1.2617038E0,1.6414927E0,9.103427E0,1.8018847E1,2.797261E1,5.2627926E1,-1.4419647E-1,-1.9448932E-1,-7.6305404E-2,-1.441635E-1,-5.206532E-3,-1.0279959E-1,2.1472609E-2,1.414764E-1,7.0313674E-1,2.5847852E-1,4.6289682E-1,6.6955197E-1,5.559686E-1,8.933718E-1,6.9530624E-1,1.6569036E0],"categories":[],"categories_nodes":[],"categories_segments":[],"categories_sizes":[],"default_left":[0,0,0,0,0,0,0,0,0,0,0,0,0,0,0,0,0,0,0,0,0,0,0,0,0,0,0,0,0,0,0],"id":44,"left_children":[1,3,5,7,9,11,13,15,17,19,21,23,25,27,29,-1,-1,-1,-1,-1,-1,-1,-1,-1,-1,-1,-1,-1,-1,-1,-1],"loss_changes":[4.5886478E5,3.1969297E4,8.640844E4,4.5165547E3,5.562131E3,2.8663E4,1.580975E4,1.45175E3,3.9877734E3,4.831142E3,2.7658608E3,4.808254E3,7.837172E3,3.3490625E2,3.7013594E3,0E0,0E0,0E0,0E0,0E0,0E0,0E0,0E0,0E0,0E0,0E0,0E0,0E0,0E0,0E0,0E0],"parents":[2147483647,0,0,1,1,2,2,3,3,4,4,5,5,6,6,7,7,8,8,9,9,10,10,11,11,12,12,13,13,14,14],"right_children":[2,4,6,8,10,12,14,16,18,20,22,24,26,28,30,-1,-1,-1,-1,-1,-1,-1,-1,-1,-1,-1,-1,-1,-1,-1,-1],"split_conditions":[6.2954666E1,3.477889E1,1.6067044E2,2.5274E1,4.6446445E1,9.232222E1,1.6165134E2,2.4682994E0,2.9820667E1,4.2265335E1,1.2010182E1,3.7E1,1.1953733E2,4E0,1.3E0,-1.4419647E-1,-1.9448932E-1,-7.6305404E-2,-1.441635E-1,-5.206532E-3,-1.0279959E-1,2.1472609E-2,1.414764E-1,7.0313674E-1,2.5847852E-1,4.6289682E-1,6.6955197E-1,5.559686E-1,8.933718E-1,6.9530624E-1,1.6569036E0],"split_indices":[12,12,12,12,12,12,10,15,9,9,16,4,12,5,5,0,0,0,0,0,0,0,0,0,0,0,0,0,0,0,0],"split_type":[0,0,0,0,0,0,0,0,0,0,0,0,0,0,0,0,0,0,0,0,0,0,0,0,0,0,0,0,0,0,0],"sum_hessian":[9.875E3,8.31E3,1.565E3,5.288E3,3.022E3,1.45E3,1.15E2,2.158E3,3.13E3,2.05E3,9.72E2,7.16E2,7.34E2,5.1E1,6.4E1,1.244E3,9.14E2,1.621E3,1.509E3,1.365E3,6.85E2,7.48E2,2.24E2,2.2E1,6.94E2,4.61E2,2.73E2,1E1,4.1E1,6E0,5.8E1],"tree_param":{"num_deleted":"0","num_feature":"17","num_nodes":"31","size_leaf_vector":"1"}},{"base_weights":[6.922383E-3,-2.3487074E0,1.998311E1,-3.7666364E0,3.586541E0,1.6877312E1,4.468275E1,-4.890055E0,-1.4212776E0,1.8145196E0,6.4701366E0,1.4803362E1,2.4831425E1,3.7204044E1,1.7182049E0,-1.8098004E-1,-1.1985158E-1,1.8379719E-3,-8.7819114E-2,8.3043054E-2,-4.5130912E-2,2.2801226E-1,5.006975E-2,5.313876E-1,3.584316E-1,9.489944E-1,6.496401E-1,1.5205199E0,9.9838185E-1],"categories":[],"categories_nodes":[],"categories_segments":[],"categories_sizes":[],"default_left":[0,0,0,0,0,0,0,0,0,0,0,0,0,0,0,0,0,0,0,0,0,0,0,0,0,0,0,0,0],"id":45,"left_children":[1,3,5,7,9,11,13,15,17,19,21,23,25,27,-1,-1,-1,-1,-1,-1,-1,-1,-1,-1,-1,-1,-1,-1,-1],"loss_changes":[4.6171828E5,7.387864E4,7.864297E4,1.866075E4,8.639139E3,1.4825594E4,8.697891E3,4.8743516E3,5.1265713E3,3.3272341E3,3.4820469E3,5.878625E3,3.398789E3,2.2810625E3,0E0,0E0,0E0,0E0,0E0,0E0,0E0,0E0,0E0,0E0,0E0,0E0,0E0,0E0,0E0],"parents":[2147483647,0,0,1,1,2,2,3,3,4,4,5,5,6,6,7,7,8,8,9,9,10,10,11,11,12,12,13,13],"right_children":[2,4,6,8,10,12,14,16,18,20,22,24,26,28,-1,-1,-1,-1,-1,-1,-1,-1,-1,-1,-1,-1,-1,-1,-1],"split_conditions":[8.2294E1,4.4513332E1,1.6165134E2,3.2888668E1,6.0009335E1,1.2660133E2,2.1639867E2,2.4862E1,3.7437332E1,8.821541E0,1.3441038E1,1.1410764E1,1.2199984E1,1.837E4,1.7182049E0,-1.8098004E-1,-1.1985158E-1,1.8379719E-3,-8.7819114E-2,8.3043054E-2,-4.5130912E-2,2.2801226E-1,5.006975E-2,5.313876E-1,3.584316E-1,9.489944E-1,6.496401E-1,1.5205199E0,9.9838185E-1],"split_indices":[2,2,2,2,2,2,2,2,8,15,15,15,15,1,0,0,0,0,0,0,0,0,0,0,0,0,0,0,0],"split_type":[0,0,0,0,0,0,0,0,0,0,0,0,0,0,0,0,0,0,0,0,0,0,0,0,0,0,0,0,0],"sum_hessian":[9.81E3,8.776E3,1.034E3,7.084E3,1.692E3,9.2E2,1.14E2,4.789E3,2.295E3,1.049E3,6.43E2,7.32E2,1.88E2,7.4E1,4E1,2.101E3,2.688E3,1.157E3,1.138E3,8.15E2,2.34E2,5.2E2,1.23E2,3.6E2,3.72E2,5.7E1,1.31E2,1.4E1,6E1],"tree_param":{"num_deleted":"0","num_feature":"17","num_nodes":"29","size_leaf_vector":"1"}},{"base_weights":[-5.4484636E-2,-2.8123689E0,1.459448E1,-4.085727E0,2.944386E-1,1.2370386E1,4.129178E1,-4.4958434E0,-1.1798625E0,-8.286576E-2,8.879867E0,9.175567E0,1.8059822E1,3.4712692E1,5.133933E1,-1.5556371E-1,-1.0250422E-1,-9.197376E-2,-7.2089345E-3,-3.0407162E-2,4.3072496E-2,3.2033533E-1,-1.603488E-1,2.5677618E-1,7.8094035E-1,4.9590328E-1,7.0817983E-1,6.689888E-1,1.1086729E0,7.5735605E-1,1.6190989E0],"categories":[],"categories_nodes":[],"categories_segments":[],"categories_sizes":[],"default_left":[0,0,0,0,0,0,0,0,0,0,0,0,0,0,0,0,0,0,0,0,0,0,0,0,0,0,0,0,0,0,0],"id":46,"left_children":[1,3,5,7,9,11,13,15,17,19,21,23,25,27,29,-1,-1,-1,-1,-1,-1,-1,-1,-1,-1,-1,-1,-1,-1,-1,-1],"loss_changes":[3.9600288E5,3.2634895E4,9.1702125E4,6.967578E3,7.7718633E3,2.591789E4,6.0842188E3,3.797375E3,1.2839292E3,3.250828E3,2.6402422E3,9.345664E3,3.9790625E3,1.2641562E3,1.7265078E3,0E0,0E0,0E0,0E0,0E0,0E0,0E0,0E0,0E0,0E0,0E0,0E0,0E0,0E0,0E0,0E0],"parents":[2147483647,0,0,1,1,2,2,3,3,4,4,5,5,6,6,7,7,8,8,9,9,10,10,11,11,12,12,13,13,14,14],"right_children":[2,4,6,8,10,12,14,16,18,20,22,24,26,28,30,-1,-1,-1,-1,-1,-1,-1,-1,-1,-1,-1,-1,-1,-1,-1,-1],"split_conditions":[6.428503E1,3.6490334E1,1.5284612E2,2.5E1,3.1E1,9.922442E1,2.2620428E2,2.9501112E1,2.8616E1,4.4876804E1,9.192133E1,3.01E1,1.2983965E2,1.30826E2,1.3E0,-1.5556371E-1,-1.0250422E-1,-9.197376E-2,-7.2089345E-3,-3.0407162E-2,4.3072496E-2,3.2033533E-1,-1.603488E-1,2.5677618E-1,7.8094035E-1,4.9590328E-1,7.0817983E-1,6.689888E-1,1.1086729E0,7.5735605E-1,1.6190989E0],"split_indices":[14,14,14,3,3,14,14,14,7,14,8,3,14,7,5,0,0,0,0,0,0,0,0,0,0,0,0,0,0,0,0],"split_type":[0,0,0,0,0,0,0,0,0,0,0,0,0,0,0,0,0,0,0,0,0,0,0,0,0,0,0,0,0,0,0],"sum_hessian":[9.8E3,8.248E3,1.552E3,5.85E3,2.398E3,1.434E3,1.18E2,5.126E3,7.24E2,2.298E3,1E2,9.2E2,5.14E2,7.4E1,4.4E1,3.125E3,2.001E3,2.4E2,4.84E2,1.425E3,8.73E2,8.9E1,1.1E1,8.89E2,3.1E1,4.06E2,1.08E2,1.3E1,6.1E1,5E0,3.9E1],"tree_param":{"num_deleted":"0","num_feature":"17","num_nodes":"31","size_leaf_vector":"1"}},{"base_weights":[4.8010163E-2,-2.1936045E0,1.8945248E1,-3.8480403E0,2.5298715E0,1.6167097E1,4.1968693E1,-5.1588135E0,-2.4977946E0,7.424312E-1,5.3161683E0,1.3422368E1,2.2672E1,3.327438E1,4.9774178E1,-2.25419E-1,-1.4456873E-1,-5.1404756E-2,-1.2181286E-1,9.47096E-2,-1.1200196E-2,1.8261553E-1,2.5763914E-2,4.8336828E-1,3.1800357E-1,8.6914617E-1,5.9720093E-1,1.0998019E0,6.4728504E-1,1.2025079E0,1.7717074E0],"categories":[],"categories_nodes":[],"categories_segments":[],"categories_sizes":[],"default_left":[0,0,0,0,0,0,0,0,0,0,0,0,0,0,0,0,0,0,0,0,0,0,0,0,0,0,0,0,0,0,0],"id":47,"left_children":[1,3,5,7,9,11,13,15,17,19,21,23,25,27,29,-1,-1,-1,-1,-1,-1,-1,-1,-1,-1,-1,-1,-1,-1,-1,-1],"loss_changes":[4.1784147E5,6.891964E4,6.622634E4,1.1546117E4,1.1391068E4,1.638936E4,5.9445E3,2.6155625E3,3.9381797E3,3.759436E3,3.0671875E3,4.839664E3,4.2312344E3,1.4269805E3,2.7602344E3,0E0,0E0,0E0,0E0,0E0,0E0,0E0,0E0,0E0,0E0,0E0,0E0,0E0,0E0,0E0,0E0],"parents":[2147483647,0,0,1,1,2,2,3,3,4,4,5,5,6,6,7,7,8,8,9,9,10,10,11,11,12,12,13,13,14,14],"right_children":[2,4,6,8,10,12,14,16,18,20,22,24,26,28,30,-1,-1,-1,-1,-1,-1,-1,-1,-1,-1,-1,-1,-1,-1,-1,-1],"split_conditions":[8.2294E1,4.0768665E1,1.6165134E2,2.812E1,5.5426666E1,1.1945267E2,1.6165134E2,1.9536E1,4.998485E0,4.2580666E1,1.3441038E1,1.1410764E1,1.2199984E1,1.6165134E2,2.1639867E2,-2.25419E-1,-1.4456873E-1,-5.1404756E-2,-1.2181286E-1,9.47096E-2,-1.1200196E-2,1.8261553E-1,2.5763914E-2,4.8336828E-1,3.1800357E-1,8.6914617E-1,5.9720093E-1,1.0998019E0,6.4728504E-1,1.2025079E0,1.7717074E0],"split_indices":[2,2,2,2,2,2,10,2,15,7,15,15,15,9,11,0,0,0,0,0,0,0,0,0,0,0,0,0,0,0,0],"split_type":[0,0,0,0,0,0,0,0,0,0,0,0,0,0,0,0,0,0,0,0,0,0,0,0,0,0,0,0,0,0,0],"sum_hessian":[9.862E3,8.817E3,1.045E3,6.53E3,2.287E3,9.34E2,1.11E2,3.312E3,3.218E3,1.394E3,8.93E2,6.59E2,2.75E2,5.5E1,5.6E1,4.15E2,2.897E3,2.144E3,1.074E3,4.4E2,9.54E2,7.61E2,1.32E2,3.35E2,3.24E2,8.1E1,1.94E2,4.1E1,1.4E1,3E1,2.6E1],"tree_param":{"num_deleted":"0","num_feature":"17","num_nodes":"31","size_leaf_vector":"1"}},{"base_weights":[7.856971E-3,-2.575815E0,1.3962714E1,-3.8562284E0,5.481233E-1,1.1378489E1,3.2169224E1,-4.217327E0,-9.02271E-1,-1.1474959E0,1.9845581E0,8.849203E0,1.617212E1,2.791656E1,4.7918858E1,-1.4692935E-1,-9.468215E-2,-8.651106E-2,4.8080797E-4,4.6283314E-3,-7.1088195E-2,1.741422E-1,3.3654258E-2,2.518738E-1,8.391413E-1,3.7900415E-1,5.5257285E-1,5.2212095E-1,8.733432E-1,1.8877568E0,1.1675639E0],"categories":[],"categories_nodes":[],"categories_segments":[],"categories_sizes":[],"default_left":[0,0,0,0,0,0,0,0,0,0,0,0,0,0,0,0,0,0,0,0,0,0,0,0,0,0,0,0,0,0,0],"id":48,"left_children":[1,3,5,7,9,11,13,15,17,19,21,23,25,27,29,-1,-1,-1,-1,-1,-1,-1,-1,-1,-1,-1,-1,-1,-1,-1,-1],"loss_changes":[3.538054E5,3.312156E4,7.176122E4,6.260758E3,5.867314E3,1.6152172E4,1.13880625E4,3.7627188E3,1.166374E3,1.7583225E3,4.2912896E3,7.4122656E3,3.4487344E3,1.4026484E3,2.8183047E3,0E0,0E0,0E0,0E0,0E0,0E0,0E0,0E0,0E0,0E0,0E0,0E0,0E0,0E0,0E0,0E0],"parents":[2147483647,0,0,1,1,2,2,3,3,4,4,5,5,6,6,7,7,8,8,9,9,10,10,11,11,12,12,13,13,14,14],"right_children":[2,4,6,8,10,12,14,16,18,20,22,24,26,28,30,-1,-1,-1,-1,-1,-1,-1,-1,-1,-1,-1,-1,-1,-1,-1,-1],"split_conditions":[6.441556E1,3.6640194E1,1.3564392E2,2.55E1,4.0765335E1,9.922442E1,2.2620428E2,2.9501112E1,2.8715334E1,4.045506E0,5.1E1,3.5E1,1.07026665E2,1.1953733E2,2.485725E1,-1.4692935E-1,-9.468215E-2,-8.651106E-2,4.8080797E-4,4.6283314E-3,-7.1088195E-2,1.741422E-1,3.3654258E-2,2.518738E-1,8.391413E-1,3.7900415E-1,5.5257285E-1,5.2212095E-1,8.733432E-1,1.8877568E0,1.1675639E0],"split_indices":[12,14,14,3,11,14,14,14,12,15,4,3,12,12,15,0,0,0,0,0,0,0,0,0,0,0,0,0,0,0,0],"split_type":[0,0,0,0,0,0,0,0,0,0,0,0,0,0,0,0,0,0,0,0,0,0,0,0,0,0,0,0,0,0,0],"sum_hessian":[9.811E3,8.279E3,1.532E3,5.872E3,2.407E3,1.343E3,1.89E2,5.232E3,6.4E2,1.104E3,1.303E3,8.81E2,4.62E2,1.51E2,3.8E1,3.186E3,2.046E3,2.02E2,4.38E2,5.35E2,5.69E2,2.39E2,1.064E3,8.62E2,1.9E1,1.82E2,2.8E2,1.7E1,1.34E2,1.2E1,2.6E1],"tree_param":{"num_deleted":"0","num_feature":"17","num_nodes":"31","size_leaf_vector":"1"}},{"base_weights":[-7.2514976E-4,-2.5594993E0,1.3473533E1,-3.7506E0,2.918928E-1,1.1628861E1,3.6527092E1,-4.6572905E0,-2.7689006E0,-1.764473E0,1.2555614E0,8.726263E0,1.6857977E1,2.595058E1,4.1547005E1,-2.0545265E-1,-1.3324931E-1,-3.178782E-2,-1.0364479E-1,-1.5331109E-2,-1.100802E-1,1.3991007E-1,1.5135192E-2,4.400936E-1,2.3335819E-1,3.8946816E-1,5.69514E-1,9.984557E-1,5.7254314E-1,7.367283E-1,1.3894193E0],"categories":[],"categories_nodes":[],"categories_segments":[],"categories_sizes":[],"default_left":[0,0,0,0,0,0,0,0,0,0,0,0,0,0,0,0,0,0,0,0,0,0,0,0,0,0,0,0,0,0,0],"id":49,"left_children":[1,3,5,7,9,11,13,15,17,19,21,23,25,27,29,